tree
version=v4
num_class=1
num_tree_per_iteration=1
label_index=0
max_feature_idx=28
objective=binary sigmoid:1
feature_names=V1 V2 V3 V4 V5 V6 V7 V8 V9 V10 V11 V12 V13 V14 V15 V16 V17 V18 V19 V20 V21 V22 V23 V24 V25 V26 V27 V28 Amount
feature_infos=[-28.798554909906773:1.2533514883735746] [-44.03529184363466:13.000138767797567] [-31.871732681364598:2.7872065616414505] [-4.0139185769171162:11.918742995132064] [-82.408096749727278:25.214134629472237] [-19.636057604049793:55.020149274672285] [-33.551922839719417:97.478239178366181] [-61.302523591984297:16.75153419450141] [-12.228015215071594:9.459861196625333] [-22.411932836925111:14.080701451233541] [-4.7001280055172527:11.775037601629705] [-18.698680396026521:7.854678682753848] [-5.819392484119831:7.1607354583136757] [-20.044280400302956:10.981465394520701] [-4.9151905112043499:9.6991171035057562] [-16.125344095228908:19.760439212119142] [-29.626451759633781:10.895017881052837] [-11.332655936619103:6.0143415884388096] [-8.8614019662257988:6.7585788023155526] [-70.691460791046595:51.13463979265893] [-47.419066784534628:37.034714157499771] [-15.065646110799035:14.473041125298398] [-71.75446410830213:36.076675169117443] [-4.6836384576319992:7.5696844399596195] [-19.750332368075352:10.599146053381578] [-5.4010975197973936:7.1817870803783519] [-24.515522270577652:78.319396971743984] [-46.746117327481414:102.54342136221207] [-0.35322939296682354:102.36224270928423]
tree_sizes=3372 3399 3387 3378 3380 3384 3369 3395 3398 3399 3406 3415 3428 3422 3428 3420 3432 3417 3433 3447 3416 3411 3447 3444 3439 3454 3467 3448 3451 3451 3441 3472 3453 3456 3462 3474 3459 3452 3453 3458 3445 3478 3478 3431 3452 3465 3484 3454 3483 3455 3468 3445 3466 3492 3470 3513 3480 3488 3473 3461 3458 3479 3460 3446 3428 3436 3472 3458 3496 3446 3453 3437 3440 3438 3430 3429 3435 3463 3433 3404 3417 3464 3471 3466 3458 3432 3450 3484 3460 3439 3475 3442 3456 3468 3457 3457 3423 3474 3454 3471

Tree=0
num_leaves=31
num_cat=0
split_feature=13 9 15 25 26 6 16 11 3 28 24 3 12 2 12 14 3 16 0 27 21 5 6 28 13 20 21 6 25 28
split_gain=59784.1 77355.5 3127.57 2961.62 8082.6 1261.05 347.993 3575.14 329.607 555.5 380.685 281.198 425.127 80.1669 68.0204 25.5747 24.2903 131.699 295.487 1017.66 106.021 90.1049 26.3686 22.9619 16.4681 97.7989 13.5427 14.5758 14.4127 9.95792
threshold=-3.7804529389881618 -2.0325723995469867 0.93706309634327523 -0.56799142203784114 2.6579607242406937 -0.42784148819808071 -1.8893851175011476 -2.1998249498950635 2.0913579677761964 -0.26157326697079586 2.0445524955647065 1.4441057482807858 -0.35129449186820888 -1.2383791995401914 -0.43060193408125619 1.1608271305754791 1.7307920642893335 1.7242400684875629 0.41240156218965995 0.1445501516844919 1.6524768110513151 -0.54073476616568217 1.205005845580581 2.9420932002316884 -2.2810801123045201 -0.065613713896507705 2.4504476372097592 -1.8739605563223412 2.9193524035855245 -0.34321418705100887
decision_type=2 2 2 2 2 2 2 2 2 2 2 2 2 2 2 2 2 2 2 2 2 2 2 2 2 2 2 2 2 2
left_child=1 2 3 4 14 -3 7 -2 9 -5 15 -7 -13 -14 -1 -10 -8 24 20 21 22 -20 -19 -9 25 -18 28 -28 29 -26
right_child=6 5 -4 8 -6 11 16 23 10 -11 -12 12 13 -15 -16 -17 17 18 19 -21 -22 -23 -24 -25 26 -27 27 -29 -30 -31
leaf_value=51.838194760563198 18.083728374700407 13.941134772798749 14.736177989325322 34.833103740412419 -4.1328476829040524 -6.4649744513818508 -6.4556956785304234 -6.4649744513818508 51.838194760564164 51.838194760562786 42.120999891905754 8.1108178516042901 -6.464974451381849 -0.63465753018739157 46.007877839368248 48.923036299965482 -6.4649744513818499 -6.4649744513818508 -0.63465753018739157 13.941134772798749 -0.63465753018739157 -6.4649744513818499 -3.6886330603368651 -4.0356757342174792 -6.2439896028210944 -0.6346575301884112 -6.4649744513818481 -3.5498159907845377 -4.9306805247516863 -6.4518549263566607
leaf_weight=0.048024834599345922 0.065176561241969466 0.034303453285247087 0.037733798613771796 0.041164143942296505 0.042879316606558859 0.68778423836920299 344.87319794856012 0.71008148300461371 0.24526969098951668 0.036018625949509442 0.051455179927870631 0.034303453285247087 0.075467597227543592 0.034303453285247087 0.034303453285247087 0.034303453285247087 0.17837795708328485 0.68092354771215369 0.034303453285247087 0.034303453285247087 0.034303453285247087 0.1166317411698401 0.036018625949509442 0.041164143942296505 2.7151183275273185 0.034303453285253194 0.034303453285247087 0.034303453285246088 0.065176561241968467 15.244454639963802
leaf_count=28 38 20 22 24 25 401 201072 414 143 21 30 20 44 20 20 20 104 397 20 20 20 68 21 24 1583 20 20 20 38 8888
internal_value=-6.3648 13.9898 42.5587 44.5269 31.0727 -4.84865 -6.44497 -4.38272 48.6536 42.7688 50.0257 -5.62349 -1.60638 -4.643 49.4089 51.4805 -6.44959 -6.34025 -5.18359 -1.60638 -6.06564 -5.1399 -6.32549 -6.33186 -6.39942 -5.5246 -6.40971 -5.0074 -6.41504 -6.42043
internal_weight=0 1.43731 0.571152 0.533419 0.125208 0.866162 364.932 0.816422 0.408211 0.0771828 0.331028 0.831859 0.144075 0.109771 0.0823283 0.279573 364.116 19.2425 0.936484 0.185239 0.751246 0.150935 0.716942 0.751246 18.306 0.212681 18.0934 0.0686069 18.0247 17.9596
internal_count=213605 838 333 311 73 505 212767 476 238 45 193 485 84 64 48 163 212291 11219 546 108 438 88 418 438 10673 124 10549 40 10509 10471
is_linear=0
shrinkage=1


Tree=1
num_leaves=31
num_cat=0
split_feature=16 11 1 19 24 13 18 23 2 9 6 8 23 22 18 16 11 3 14 22 7 19 12 4 15 3 18 0 17 4
split_gain=680.414 2636.01 29360.2 28095.7 495.044 368.767 8336.99 1673.82 1196.96 22481.4 7657.9 491.192 43.5835 17.5637 11.1338 355.474 28.6378 15.7566 8.16352 14.3072 5.8375 5.32395 71.3503 211.66 10.9621 61.6193 31.035 93.1599 7.89984 23.7224
threshold=-1.8893851175011476 -2.1998249498950635 2.1609459365827433 1.2369959061521405 1.4837812584507213 -3.7804529389881618 -3.0010925510569875 -2.8751408181602804 -1.2383791995401914 -1.729856147409248 -1.0000000180025095e-35 -0.92565897281869347 -0.70873073536738951 -0.45129305822401705 -3.0010925510569875 2.9385676340686318 -2.9739345889627198 2.7539692399418896 -1.5520372618423519 0.11056260465682484 -0.081123603648968048 -1.2572840985218019 -1.8483605501410996 0.67560472154998419 -0.94315633907290175 2.0069051464099501 -1.8642294702827431 -1.0596038024877803 2.1927263760316933 0.10792527575631151
decision_type=2 2 2 2 2 2 2 2 2 2 2 2 2 2 2 2 2 2 2 2 2 2 2 2 2 2 2 2 2 2
left_child=1 2 3 -1 13 6 -2 -8 9 -9 -11 -12 -10 -4 15 16 -7 -18 19 -3 -14 22 23 -16 25 26 27 -24 -26 -30
right_child=5 18 4 -5 -6 14 7 8 12 10 11 -13 20 -15 21 -17 17 -19 -20 -21 -22 -23 24 -25 28 -27 -28 -29 29 -31
leaf_value=-195.80829135816725 -77.420932409483598 -0.10092628870040161 1.9749914714607257 -6.5387072968554909 -10.830146187480484 2.6741197641314969 -57.136996220539629 -385.75884130125735 -0.96610539751731594 -75.548663109135305 -13.676932371023568 -0.10015570106655142 -0.1824020118113327 -0.10160233114279234 -0.10015717245598084 -9.2452952679438596 -0.11520270419951076 -1.7651196952145765 -0.10986133686637732 2.2005756900218665 0.14085238276683673 -0.09253611446105138 -0.10015715072975247 9.4746097730689325 -0.11107272507878696 3.4702780354082243 -0.10022835620322701 6.2830207984693942 -0.10073901229436451 3.0552216703494866
leaf_weight=0.015839717068415193 0.014221776638578265 0.071383031085132914 0.048156832577661401 0.015534935666636329 0.046604652925957168 0.03604542720131565 0.0052576488054673068 0.0015557779339593339 0.73420278564299302 0.014577866313061016 0.02943995056557458 0.28094705217517979 3.1067923452646937 0.26409475978508901 0.087742613162845262 0.043739007947351527 1.5945998970420294 0.060061362903411353 1.292593326419619 0.043452483834699546 0.68112466597426502 338.00454959642354 0.084597358480095863 0.031332354992628098 6.6619321317413078 0.055994894122704753 1.0363957636291159 0.031332354992627987 0.095856939442455658 0.031691893120296299
leaf_count=142 22 26 29 24 33 23 6 36 47 20 23 181 119 101 56 32 714 39 480 19 6 207445 54 20 3157 19 645 20 47 20
internal_value=0 -2.05443 -9.32675 -102.093 -1.21625 -0.103977 -0.968303 -0.744299 -0.683149 -6.53031 -4.71474 -1.3879 -0.260954 0.218659 -0.0918806 -0.34461 -0.114347 -0.175092 -0.0380765 0.769937 -0.124276 -0.0906142 -0.0105811 2.41926 -0.0467578 0.230759 0.0733409 1.62503 -0.0961472 0.683418
internal_weight=0 1.79766 0.390231 0.0313747 0.358856 352.724 4.86812 4.8539 4.84864 0.326521 0.324965 0.310387 4.52212 0.312252 347.856 1.73445 1.69071 1.65466 1.40743 0.114836 3.78792 346.121 8.11688 0.119075 7.9978 1.20832 1.15233 0.11593 6.78948 0.127549
internal_count=213605 854 329 166 163 212751 460 438 432 260 224 204 172 130 212291 808 776 753 525 45 125 211483 4038 76 3962 738 719 74 3224 67
is_linear=0
shrinkage=0.1


Tree=2
num_leaves=31
num_cat=0
split_feature=9 0 11 11 2 13 19 7 1 25 16 11 18 7 10 12 19 18 26 4 1 28 13 28 18 5 27 2 3 0
split_gain=7326.34 57181.8 308578 370276 740650 7403.01 122064 176496 1740.44 133.634 104.511 13003.8 45.1407 83.8744 23.347 20.5916 216.853 65.108 16.1291 8.1589 98.0211 12.1547 9.38952 21.4383 345.848 87.7973 215.824 17.9954 249.028 438.725
threshold=-2.4714538599024949 -0.49586792923152312 -0.9679994562366151 -1.7912238792496209 -0.17544520297026731 -3.1769378162098119 1.1445854154940938 1.9476371830679948 2.5692286709908871 -0.58418489677001417 -1.8893851175011476 -2.1998249498950635 1.184368143867331 -0.45601839008944994 1.2673563642662873 -1.9053988990745168 -1.2572840985218019 -3.0010925510569875 0.52315350931997429 3.246004812090828 -0.040292985194801387 -0.35320940253585381 -2.4879431365010745 0.37246323209485482 -3.0010925510569875 -0.52938988947171473 0.14911973183507207 -2.0120846186326999 1.2713905377588461 -0.21414339287597181
decision_type=2 2 2 2 2 2 2 2 2 2 2 2 2 2 2 2 2 2 2 2 2 2 2 2 2 2 2 2 2 2
left_child=1 5 3 4 -3 6 7 -1 -9 -8 11 -2 14 -14 -7 16 18 -18 -12 22 21 -21 23 27 -25 26 -26 28 -17 -30
right_child=10 2 -4 -5 -6 12 9 8 -10 -11 15 -13 13 -15 -16 19 17 -19 -20 20 -22 -23 -24 24 25 -27 -28 -29 29 -31
leaf_value=444.90249780425313 109.14062447976049 3219.9471239400309 -0.10014326279775823 -0.10014326279793646 -0.10014324758161625 -0.1250554912160112 0.16464164987128047 49.625287897913474 -0.10144878002919955 -3.8501287025389779 -2.0240478592800955 -0.044306629036446825 -0.10132488730828747 6.3012681752376309 -2.563290686520701 -0.10067777519074848 6.4199826150503529 -0.10139878601926594 -1.0830030241940092 1.2882099758294874 5.1006943875924398 -0.033666277187980424 -0.091525535750347428 -18.278000284041397 -0.1008977927251038 -0.20794438477853108 -10.621623035548801 -0.15957254223606565 -0.10014218263896409 23.329706719387357
leaf_weight=0.015505484654595003 0.010984832953681578 0.0014285504585132007 0.028571009170218653 0.0028571009170272324 0.0014287022146106661 1.2543186120223024 0.3687564188203396 0.014076934196054934 0.014076934196054937 0.10695412591195697 0.61418491345830162 1.5586283562006418 0.059284604098138516 0.031243416773577226 0.040541012706554969 0.55933656438719181 0.015337135293519988 8.4319311689690135 0.25891208392567933 0.071868595114211398 0.038455346948466196 2.1661938204197213 303.25806012064317 0.010903139048878185 0.061677383957430831 1.3995547741041092 0.028513042013855738 11.702033718586859 0.021265093395814505 0.012804062961811802
leaf_count=107 31 56 20 3 2 426 24 11 44 71 39 520 15 29 36 349 12 5741 31 19 31 751 202793 5 29 102 23 2233 19 33
internal_value=0 6.0706 134.068 804.89 1609.84 3.76667 13.9486 173.974 24.7619 -0.738 -0.0942301 0.719817 -0.0504636 2.10837 -0.201395 -0.0981179 -0.244633 -0.0895584 -1.74499 -0.0938416 0.0947953 0.00878177 -0.095196 -0.175879 -0.5327 -0.402826 -3.42695 -0.13233 0.404905 8.7054
internal_weight=0 1.93904 0.0342854 0.00571435 0.00285725 1.90476 0.51937 0.0436594 0.0281539 0.475711 330.221 1.56961 1.38539 0.090528 1.29486 328.651 9.32037 8.44727 0.873097 319.331 2.27652 2.23806 317.054 13.7961 1.50065 1.48975 0.0901904 12.2954 0.593406 0.0340692
internal_count=213605 844 81 61 58 763 257 162 55 95 212761 551 506 44 462 212210 5823 5753 70 206387 801 770 205586 2793 159 154 52 2634 401 52
is_linear=0
shrinkage=0.1


Tree=3
num_leaves=31
num_cat=0
split_feature=10 14 12 2 19 11 0 12 20 7 9 15 21 8 12 16 6 5 6 1 4 5 16 6 9 12 23 18 13 28
split_gain=83.522 1611.35 742.78 881.52 198.757 1803.13 167.101 191.86 638.912 88.2841 37510.1 1514.86 112.515 47.5693 64.333 47.0068 2029.52 610.42 745.998 52.6806 336.755 19.0639 17.9854 54.6658 344.975 78.171 57.4818 33.9584 112.382 77.1512
threshold=2.6842350235545376 -1.6305756823431403 -1.3396999650754839 -0.83870932230506046 2.13235806232636 -2.8177364777071747 0.97329980591265575 -0.7615709037430618 1.1273632182172384 1.5920493777097831 -2.0325723995469867 -2.8594422857000605 -0.15163798248909796 -1.2644383605069198 -0.50820557218880624 -1.8893851175011476 -1.8739605563223412 -1.7316742082617314 -1.1467613236602874 0.96133829633461843 -1.0000000180025095e-35 -0.45354718605453342 2.3432372903467309 1.0324370213693104 -2.0325723995469867 -1.5648790299108473 -1.0049246908196106 -1.6482705976601271 -3.1769378162098119 -0.34921131634191588
decision_type=2 2 2 2 2 2 2 2 2 2 2 2 2 2 2 2 2 2 2 2 2 2 2 2 2 2 2 2 2 2
left_child=15 -2 3 -3 6 -6 7 8 -4 10 -9 -12 -11 -13 -15 16 -1 -18 -19 21 -21 -20 -17 27 -25 -26 -27 28 -24 -30
right_child=1 2 4 -5 5 -7 -8 9 -10 12 11 13 -14 14 -16 22 17 18 19 20 -22 -23 23 24 25 26 -28 -29 29 -31
leaf_value=34.435830402728918 79.157197875283487 -55.492326515663699 19.448828134974079 -0.10010688091845379 -41.170373805775569 -0.10012928847780125 -4.9838062432100632 -536.88106649663894 -3.3490361617898303 -0.10575705671377483 75.030222565903344 -1.5685043899743649 3.676512212120258 -6.6562384000138088 -0.1199400288169129 -0.095876958872623305 -30.152275870618229 75.0302225658846 1.8335053451930912 13.158164662092526 -0.10026050346681233 -0.12229643756654252 -3.0369910121858323 -6.9997285968806127 7.1034271191356169 -2.5005899456036631 -0.11654384669579701 -0.068046352140380781 -2.9938490661806267 -0.18512167865378681
leaf_weight=0.017372668115059109 0.0025234289417713765 0.0054159238752617984 0.020461455336773571 0.0061188861727717852 0.012130119968751435 0.090032990789040729 0.07872208946249859 0.0013040701585004246 0.030792226258199662 0.30873328332726535 0.0026620398275568604 0.31549871340394164 0.10553705692291249 0.015239403379384675 1.2657338596181733 303.13743010624563 0.0066550995688884331 0.0013310199137782633 0.051707759615964632 0.022627338534221053 0.12491385487374018 1.3784481959954713 0.16152774108849044 0.085798045033183001 0.013882036910612072 0.11842220886597354 0.69279784750214857 8.8621998824706996 0.1023088228015564 2.2173919987899993
leaf_count=28 33 36 36 7 24 76 7 78 19 42 6 6 45 14 394 209161 8 19 36 27 87 330 55 37 13 48 159 2445 71 258
internal_value=0 -0.707894 -0.797133 -26.1083 -0.66719 -4.97652 -0.461913 -0.28961 5.75231 -0.443315 -0.780104 -0.342921 0.857791 -0.468602 -0.197701 -0.0979329 0.442205 0.0697729 0.197149 0.134017 1.93309 -0.0515838 -0.100678 -0.219449 -0.964782 -0.337239 -0.464568 -0.159598 -0.486591 -0.308999
internal_weight=0 2.26091 2.25838 0.0115348 2.24685 0.102163 2.14468 2.06596 0.0512537 2.01471 1.60044 1.59913 0.41427 1.59647 1.28097 316.995 1.60306 1.58568 1.57903 1.5777 0.147541 1.43016 315.392 12.2543 0.9109 0.825102 0.81122 11.3434 2.48123 2.3197
internal_count=213605 823 790 43 747 100 647 640 55 585 498 420 87 414 408 212782 535 507 499 480 114 366 212247 3086 257 220 207 2829 384 329
is_linear=0
shrinkage=0.1


Tree=4
num_leaves=31
num_cat=0
split_feature=11 0 9 24 21 8 16 18 6 16 28 13 26 25 13 10 25 12 9 17 12 28 16 16 18 22 0 23 10 26
split_gain=811.827 2581.65 920.359 7529.83 22078.4 259.395 677.918 4130.52 1629.44 246.94 195.286 684.772 134.838 91.6676 112.429 82.6016 775.707 8908.62 1291.04 953.616 928.048 35.2383 29.5685 14.6811 19.5321 52.1781 445.427 1283.65 31.4313 45.4473
threshold=-3.5439995401034765 -5.001369202590852 -1.3656522041643668 0.34988481556934653 -0.29596298825733175 2.9180918523634127 -1.8893851175011476 -1.4069656768303 1.7520802605590176 -1.8893851175011476 -0.35280959391646 -1.5958531444360966 2.6579607242406937 -2.0324974930786772 -1.745835985590831 2.6842350235545376 -0.80281842660300251 -0.24027497281074445 -1.8479549031280158 -3.0088214347860132 -0.37175110798438105 -0.34921131634191588 3.5402808012507001 2.3432372903467309 -1.4069656768303 -0.45995877567962445 -0.63866394368915025 -1.1162057784702164 -0.7823105135155477 -2.0350661509771548
decision_type=2 2 2 2 2 2 2 2 2 2 2 2 2 2 2 2 2 2 2 2 2 2 2 2 2 2 2 2 2 2
left_child=1 -1 3 4 -3 15 7 -7 -9 -4 11 -8 -5 14 -12 23 17 -17 -18 -20 -21 -10 -15 -2 25 26 -25 -28 -27 -30
right_child=5 2 9 12 -6 6 10 8 21 -11 13 -13 -14 22 -16 16 18 -19 19 20 -22 -23 -24 24 -26 28 27 -29 29 -31
leaf_value=16.001483684521229 -0.094710076091737441 5.8889105025929629 -5.513679423115029 2.5895428025587397 132.525381856894 -47.890831287653441 -22.41301306495965 -17.561336148691453 -3.8892324239997742 -0.1220184388994906 -10.369277611330944 -0.10011847021025502 0.12832615068789774 -0.13334694941104006 -0.10011810185887293 -122.05306962722358 24.936017472119239 -0.10011234063691095 94.137712803227998 -14.139779979580883 -0.30192582070313123 -0.12022013519036584 2.8369190844389536 -0.11326139795081534 -0.12716861550211217 -3.6027327985653885 -34.921033860040403 5.9265871927160036 -5.060407771081354 -0.24594269810511815
leaf_weight=0.1179560693313032 276.10546542772443 0.066791849252469171 0.088921041235153431 0.3224118122816434 0.01734190521601997 0.020882277982309461 0.017926794081176922 0.062849529204862864 0.026391406659968197 1.9005120802558497 0.019475666120342794 0.059091848670505764 0.71896817540543945 2.2443694658339308 0.023556136526168614 0.0065598691930972555 0.019969567656516918 0.068950039421906806 0.001061145099810922 0.049858370823905873 1.7348452561073113 0.4129813391772359 0.034022977743006666 0.19879393857286942 10.62012339489238 0.028546806096138577 0.014343739276984704 0.016592893517782068 0.019712527282536807 3.6643629265984021
leaf_count=88 207693 40 8 68 95 19 20 31 23 499 20 50 33 1345 20 25 17 64 2 64 255 111 17 74 2415 37 25 28 9 410
internal_value=0 1.47979 0.929889 3.21519 31.9916 -0.11351 -1.05111 -4.31287 -2.50091 -0.363008 -0.33971 -5.29365 0.89032 -0.175352 -4.74781 -0.104146 -0.764643 -10.6947 -0.349401 -0.632159 -0.688507 -0.34661 -0.0889923 -0.0998714 -0.19773 -0.387814 -1.85032 -13.0124 -0.297316 -0.271704
internal_weight=0 3.2329 3.11495 1.12551 0.0841338 295.471 2.92155 0.523105 0.502222 1.98943 2.39844 0.0770186 1.04138 2.32142 0.0430318 292.549 1.88124 0.0755099 1.80573 1.78576 1.7847 0.439373 2.27839 290.668 14.5625 3.94235 0.229731 0.0309366 3.71262 3.68408
internal_count=213605 831 743 236 135 212774 1656 184 165 507 1472 70 101 1402 40 211118 427 89 338 321 319 134 1362 210691 2998 583 127 53 456 419
is_linear=0
shrinkage=0.1


Tree=5
num_leaves=31
num_cat=0
split_feature=16 27 9 12 11 28 22 11 23 4 27 15 15 8 13 17 28 8 1 17 6 9 15 11 12 6 20 16 3 8
split_gain=94.8111 394.454 42505 266.101 228.969 168.404 190.642 1656.72 150.402 1174.44 4613.62 11473.5 16828 151.311 460.925 88.3171 64.9706 40.0206 17.7643 71.9827 14.4162 13.3859 12.3586 118.608 20.9212 32.3568 131.462 24.7475 15.8458 874.47
threshold=-1.8893851175011476 -0.22797426040234592 -2.4714538599024949 1.3137860187764414 -3.5439995401034765 0.014614527306438059 -1.0137722343870077 -2.1998249498950635 -0.46481727585653149 0.50308325202788218 0.12036854896352686 -0.69277781061190413 -1.1850973946973558 -1.5878701581679462 -3.7804529389881618 -2.2203720489971919 -0.27344758296679161 -1.7257280427811115 1.2185369177461005 -0.24188142364215251 -0.7702454546268005 -1.002278331600265 2.4187165188991351 -3.5439995401034765 -1.446287452947467 1.3563770270891216 -0.23225818405052626 -1.2877554235676603 3.386784394288926 -2.5053896822451089
decision_type=2 2 2 2 2 2 2 2 2 2 2 2 2 2 2 2 2 2 2 2 2 2 2 2 2 2 2 2 2 2
left_child=1 2 -1 4 -4 8 -7 -8 9 10 -3 12 -12 16 -15 -6 -10 -17 -19 -20 -11 -16 28 -24 -25 -26 27 -27 -2 -30
right_child=22 5 3 -5 15 6 7 -9 13 20 11 -13 -14 14 21 17 -18 18 19 -21 -22 -23 23 24 25 26 -28 -29 29 -31
leaf_value=195.32918033781041 -0.099754555740151407 -0.10010741987791323 7.9417152149271644 -6.4633104209361694 -8.7826601288501411 0.15475804113974312 17.477717700559054 -0.14220321505699371 -0.38330960917785351 1.9910667724180731 -561.78165922553069 -0.10010677900489261 -57.439447414227288 4.5062277084134932 -1.2507071663999365 4.0816074079641593 -1.6239977695584291 0.070364446090375107 -0.10010651560381839 -8.9025735272397863 -0.10073540312562793 -0.3089281343235728 -12.21757236030351 0.68046424492164082 -0.21261478364731753 -3.0729610486313099 -8.4242832010024511 -0.10120083354230576 29.434898100333704 0.033721675742522633
leaf_weight=0.011257208518923978 267.98285151311632 0.027870132820680675 0.037286762148675545 0.062869006646892212 0.011478254687972478 1.4968715589003521 0.063185540738565638 0.34327576931325954 1.0184523987539189 0.047701850533485413 0.0010682209473174206 0.0053923061853746908 0.0017379328195128683 0.23566758632660001 0.2174694027062325 0.023907246068120003 0.72079618348630003 0.70867443129959218 0.051714669380169262 0.01132440213167836 0.10651132294637866 0.49318704385407031 0.0082511895088827059 0.24798293514551684 6.1485026141696197 0.033649059971402329 0.024026394705288223 0.16757993607461685 0.010157436132431363 2.4894246308058419
leaf_count=87 211379 28 3 20 4 48 55 56 34 1 52 8 2 31 13 3 28 190 82 19 43 47 10 67 599 18 27 77 23 551
internal_value=0 0.311374 2.20932 -0.186914 0.280397 -0.0533918 0.676275 2.59686 -0.536309 -3.25315 -19.4979 -85.4395 -249.428 -0.343812 0.673788 -0.0735442 -0.897488 0.0521004 -0.0727314 -1.68139 0.546309 -0.597124 -0.100723 -0.23561 -0.22068 -0.255741 -1.43289 -0.598132 -0.097417 0.153198
internal_weight=0 5.6977 0.918512 0.907255 0.844386 4.77919 1.90333 0.406461 2.87585 0.190282 0.0360686 0.00819846 0.00280615 2.68557 0.946324 0.807099 1.73925 0.795621 0.771714 0.0630391 0.154213 0.710656 277.112 6.62999 6.62174 6.37376 0.225255 0.201229 270.482 2.49958
internal_count=213605 854 408 321 301 446 159 111 287 134 90 62 54 153 91 298 62 294 291 101 44 60 212751 798 788 721 122 95 211953 574
is_linear=0
shrinkage=0.1


Tree=6
num_leaves=31
num_cat=0
split_feature=16 23 1 3 9 26 5 17 9 14 28 1 8 14 6 17 25 8 20 13 21 11 4 27 10 0 12 4 13 24
split_gain=301.952 2187.76 22703.4 104796 199424 268.843 11338 11464 2918.65 10502.2 125.005 178.357 103.753 252.844 509.4 1411.01 54.5908 49.0181 651.925 1095.11 82.7242 8201.84 377.505 365.891 24.3669 45.4565 21.8498 17.5453 15.8087 46.3553
threshold=-1.8893851175011476 -0.86036385426469797 0.6020616928590049 1.0190703807812191 1.0130671182478743 1.7993821025105399 -1.2350640343108206 0.35247007969052752 -1.2201887534202231 1.5236274336404738 -0.34921131634191588 0.7607238878920366 -2.5053896822451089 -0.57428265529672673 -4.0531814279635627 -0.79707586522696172 -0.46191873277411338 -2.5053896822451089 0.9172936494737286 0.72435142154027754 -1.1146724505929388 -2.1998249498950635 0.18887648091227807 -4.1462496171706649 -1.3419389995754976 -1.1657665756482012 -0.49684823582285736 -2.4963243171482081 -3.7804529389881618 -0.73274997722937296
decision_type=2 2 2 2 2 2 2 2 2 2 2 2 2 2 2 2 2 2 2 2 2 2 2 2 2 2 2 2 2 2
left_child=1 2 26 -4 -5 6 7 -3 9 -8 11 -10 16 -14 -15 -16 -7 18 20 -20 22 -22 -2 -23 25 -25 -1 -18 29 -12
right_child=17 5 3 4 -6 12 8 -9 10 -11 28 -13 13 14 15 -17 27 -19 19 -21 21 23 -24 24 -26 -27 -28 -29 -30 -31
leaf_value=2.3057000787918289 -0.10034694621531443 286.70109655792402 -0.10029255136158698 1062.4487173798495 -0.10011268573881765 -0.58902255923711466 79.319145084446106 0.10028070581079616 -0.10060390692385196 -0.10878788040381995 6.015849863182221 -10.462173232626386 0.04328095679651911 -0.94378319792365295 -25.60349958463436 -0.10088809102006378 -0.030293972231358837 -0.09951344221912363 -0.10078300784051475 -29.995892726378969 204.81593575691861 -37.107915053028755 -15.466088626908016 -7.3077881995306404 -0.16771480262121141 -0.1000991214263441 -0.12613915641457674 0.55985887926065736 -0.12763886378390449 -0.10010021815985687
leaf_weight=0.041560251908790979 0.088309140293858834 0.0027913388786620472 0.030786499551944457 0.0029175130184739819 0.0044767201179638505 1.3502972543125618 0.021453608249790909 0.0027913386002183676 0.03976015127955073 0.074301024291799536 0.016635188716463745 0.028535287748204859 0.4897721018693022 0.21349291583828739 0.035118984240049396 0.056756969860376698 1.1402157992398105 252.87624167086196 0.0314625760074706 0.020069712767914138 0.0019520190444733956 0.0027021312645228992 0.019523635250985771 0.013874127541803505 0.9963821749959596 0.023690917005296352 0.33283721957140988 0.90252076089382161 1.6500080730495095 0.048595173780284662
leaf_count=27 76 73 41 54 4 27 82 2 21 8 11 23 6 14 26 39 31 212081 18 28 16 4 27 20 457 24 82 16 209 58
internal_value=0 0.588445 7.63495 81.0925 419.146 0.109734 1.10152 143.401 0.678801 17.6869 -0.23433 -4.42989 -0.336615 -1.36477 -3.62311 -9.8491 -0.0956704 -0.102537 -0.740697 -11.7437 -0.246111 0.0276001 -2.88239 -0.358018 -0.261975 -2.76216 0.143809 0.230447 -0.0672762 1.4596
internal_weight=0 6.48562 0.412578 0.0381807 0.00739423 6.07305 1.88487 0.00558268 1.87929 0.0957546 1.78353 0.0682954 4.18817 0.795141 0.305369 0.091876 3.39303 254.074 1.19797 0.0515323 1.14643 1.0386 0.107833 1.03665 1.03395 0.037565 0.374397 2.04274 1.71524 0.0652304
internal_count=213605 854 208 99 58 646 487 75 412 90 322 44 159 85 79 65 74 212751 670 46 624 521 103 505 501 44 109 47 278 69
is_linear=0
shrinkage=0.1


Tree=7
num_leaves=31
num_cat=0
split_feature=0 18 2 13 25 4 9 10 19 5 1 0 5 28 11 1 10 13 19 10 3 1 16 28 27 1 19 24 2 24
split_gain=28.0628 87.1136 541.091 1209.66 31.611 16.8228 63.1821 469.004 901.369 385.914 949.656 140.319 259.136 55.0653 43.5903 160.423 41.723 367.575 272.327 13.7516 24.4349 35.1501 13.4519 459.799 1483.97 37.8591 99.2699 190.144 22.9625 11.735
threshold=-5.001369202590852 1.7935580700644442 -3.7745514573059231 -1.5958531444360966 0.5244408559116932 -2.0441809663260515 -2.0325723995469867 2.0429206366233625 2.4420293330408414 -1.3381405554948078 0.3591891275221793 -0.21414339287597181 -0.23867033678776248 -0.34969108668518839 -2.1998249498950635 2.5692286709908871 0.55196061848693623 -2.7379757745281146 -1.7995965232710247 2.6842350235545376 -0.57196291681476008 0.98822528260770193 -1.8893851175011476 -0.33889625396155593 -0.17616769404958829 0.5518842955413229 1.9039211634589419 -0.20112969608061937 -1.0132343166064748 -2.2301567258760495
decision_type=2 2 2 2 2 2 2 2 2 2 2 2 2 2 2 2 2 2 2 2 2 2 2 2 2 2 2 2 2 2
left_child=1 29 3 -3 -4 13 7 9 -9 10 -7 16 -13 -2 15 -15 18 -18 -11 22 21 -21 23 24 25 -8 -27 -28 -25 -1
right_child=5 2 4 -5 -6 6 19 8 -10 11 -12 12 -14 14 -16 -17 17 -19 -20 20 -22 -23 -24 28 -26 26 27 -29 -30 -31
leaf_value=-0.89045303769024131 5.1003568252618541 -31.038898317755542 -2.0974883375572766 -0.10104932419093167 -0.12033659909640299 -0.10046422253536043 -0.10078123998490779 7.4145681173517666 0.31393309917114776 27.090899364914321 -26.971483817146169 13.112393061440734 -0.10095485940723281 -2.7686883238577349 -0.13892089105847241 -0.21494224847123033 -13.844681318798019 -0.10015842934661937 -0.13795592151462646 -2.0088199268550029 -0.20229479190865282 -0.12116537355353481 -0.094282824154281741 2.221085917491556 -32.510908944417729 -0.10010362667190459 -34.001886046886533 -0.10008839179205301 -0.10559409987143736 -0.11940284952497618
leaf_weight=0.21122469913373887 0.019229092402383574 0.019390067222581686 0.10018685687100515 0.03629381542486948 0.41928382560067146 0.044863376708235925 0.065057593435994931 0.25073738006365132 0.62290897211624086 0.0036776903434668764 0.018607058128282006 0.02270580454552714 0.042857085336379476 0.3095446568760688 6.1129074004982007 1.1980150694469118 0.021828888339996411 0.1791055930067661 2.9345602602268395 0.19024348872730401 3.6621308114064957 0.20488527705642223 219.27020981183782 0.043073094966946779 0.018512595493964154 0.013442508888591217 0.0029496970237267908 0.0037673822342090242 2.7874981409691388 3.0131124020434807
leaf_count=77 23 50 31 14 50 39 22 151 6 6 38 35 31 90 1929 41 22 210 722 28 421 57 208489 28 29 16 6 35 298 611
internal_value=0 -0.372147 -1.50587 -10.8741 -0.501657 -0.0982161 -0.0933753 0.293669 2.35182 -0.25651 -7.978 -0.103584 4.4751 -0.244208 -0.257694 -0.739299 -0.199212 -1.59332 -0.103875 -0.10046 -0.282905 -1.03002 -0.0971291 -0.309822 -6.84891 -1.27409 -5.06052 -14.9875 -0.0701888 -0.169914
internal_weight=0 3.79949 0.575155 0.0556839 0.519471 238.043 230.404 4.14185 0.873646 3.26821 0.0634704 3.20474 0.0655629 7.6397 7.62047 1.50756 3.13917 0.200934 2.93824 226.262 4.05726 0.395129 222.205 2.9343 0.10373 0.0852172 0.0201596 0.00671708 2.83057 3.22434
internal_count=213605 833 145 64 81 212772 210689 1260 157 1103 77 1026 66 2083 2060 131 960 232 728 209429 506 85 208923 434 108 79 57 41 326 688
is_linear=0
shrinkage=0.1


Tree=8
num_leaves=31
num_cat=0
split_feature=9 0 4 5 12 14 18 13 19 28 5 17 21 1 12 8 12 1 10 16 21 28 3 19 19 1 10 17 28 28
split_gain=49.2725 1227.91 5336.13 2406.23 1028.23 329.23 286.467 116.026 850.097 3609.69 55.1625 321.507 48.9181 54.7289 176.242 18.9733 661.847 183.746 41.8109 15.376 358.581 151.721 627.966 1100.24 13.3789 42.3917 12.6283 80.9756 28.8662 11.6533
threshold=-2.0325723995469867 -0.25163456579126992 0.89152989514302428 -0.23867033678776248 0.1773612700472034 -2.68371636282092 -3.0010925510569875 -3.7804529389881618 1.7250159406363326 1.0000000180025095e-35 -1.4083997414332519 -2.4828671623839011 -2.8547418905400934 -4.9165245842106797 0.24050688936194006 -2.5053896822451089 -1.5990841301894998 -2.0742024508347905 -1.3419389995754976 -1.8893851175011476 -1.7264571085808222 -0.33889625396155593 -1.3135124270550758 -0.42152767742402547 -1.7995965232710247 -1.5591455810039314 2.6842350235545376 -2.0150016166269418 -0.35280959391646 0.042701082818852203
decision_type=2 2 2 2 2 2 2 2 2 2 2 2 2 2 2 2 2 2 2 2 2 2 2 2 2 2 2 2 2 2
left_child=1 5 3 4 -3 -1 -7 8 9 -8 -9 -12 -13 14 -14 16 -2 -18 -19 20 -17 22 -22 -24 25 -15 -21 -28 -29 -10
right_child=15 2 -4 -5 -6 6 7 10 29 -11 11 12 13 24 -16 19 17 18 -20 26 21 -23 23 -25 -26 -27 27 28 -30 -31
leaf_value=16.338770507648061 -66.97244058273921 -51.993140056309556 -0.80221838226161124 -0.10007829157207487 -25.375795495554492 -14.445715816469624 32.277602914435093 -2.2546933827330089 -0.2046200605505788 0.61076132265816607 -32.547676513368508 -5.2636558659485564 -0.10304242072446353 0.096351822732899731 -11.888306565203493 -12.447507778724047 -9.8029585480403334 -4.511563743552224 -0.17806989289760464 -0.092348297660937301 -0.11934743478899437 -0.080919192332662496 -0.10058381698382596 -31.53044668772916 -0.17168980615486862 -1.2778965117759979 -8.5502097214737489 -1.7847999888244859 -0.20250214714441672 0.2029284078140198
leaf_weight=0.012166297183207386 0.0014953860081733375 0.030717041518076926 0.45056580327254586 0.021245443869765956 0.027512000931894254 0.013941874136647381 0.043239203141524629 0.13994904471403558 1.980029511591598 0.21490129624503673 0.0030818920971985566 0.019369066337184715 0.050335382868061967 0.45728054651226557 0.016966075229092409 0.024099538286293298 0.020480853559827428 0.022668105419625495 1.2505375864884378 205.89309121393822 0.18526117658485605 4.246555824002427 0.026737446613291537 0.019090135439491857 8.2004226974611694 0.44088318973968732 0.01183410988596767 0.11985635381097459 3.0301728658320699 1.0866454100716352
leaf_count=25 5 39 37 34 29 35 124 63 37 75 12 14 22 16 31 16 30 38 530 210291 70 395 17 37 1054 26 25 7 443 28
internal_value=0 -0.30063 -5.01621 -28.9066 -39.417 -0.103501 -0.119293 -0.103507 0.403712 5.91504 -0.284292 -0.254281 -0.243445 -0.232837 -3.074 -0.101646 -0.483233 -0.406377 -0.255223 -0.0993316 -0.282186 -0.21671 -2.71203 -13.1931 -0.211821 -0.578228 -0.095394 -0.293726 -0.262707 -0.0602094
internal_weight=0 13.2093 0.53004 0.0794745 0.058229 12.6792 12.667 12.6531 3.32482 0.25814 9.32829 9.18834 9.18526 9.16589 0.0673015 214.852 1.29518 1.29369 1.27321 213.557 4.50174 4.47764 0.231089 0.0458276 9.09859 0.898164 209.055 3.16186 3.15003 3.06667
internal_count=213605 1701 139 102 68 1562 1537 1502 264 199 1238 1175 1163 1149 53 211904 603 598 568 211301 535 519 124 54 1096 42 210766 475 450 65
is_linear=0
shrinkage=0.1


Tree=9
num_leaves=31
num_cat=0
split_feature=14 9 3 7 22 5 2 7 12 13 25 27 28 21 12 26 2 14 16 15 5 3 12 7 5 28 2 11 12 11
split_gain=124.532 5046.92 18714.6 3826.67 393.41 32.1179 44.1327 16.5582 227.615 2111.21 66.015 275.027 17.2549 52.072 14.8506 250.59 665.47 11.9021 1055.41 11.0458 44.5804 36.614 390.113 188.678 121.71 557.904 49.9858 27.2922 20.7794 30.9534
threshold=-2.68371636282092 -1.2891316754289004 -1.1224794227843844 0.018314829294682634 0.090869425831404213 2.0727271711929656 0.14709439843893152 1.405550470425083 -1.2701001877696527 -0.52565772382977161 -1.5881854295068261 -1.4709928679586188 0.70284508473091778 0.11517607227823438 2.9019578013245924 -0.67374514636389038 0.23075269382637212 1.0195464873502555 -0.92383499213232911 2.4187165188991351 -1.7316742082617314 3.386784394288926 -1.7115995431172866 -4.0400437913402962 -1.7316742082617314 -0.34529319187185664 -1.6571456531697828 -3.5439995401034765 2.0281355875325153 -2.2835783164856358
decision_type=2 2 2 2 2 2 2 2 2 2 2 2 2 2 2 2 2 2 2 2 2 2 2 2 2 2 2 2 2 2
left_child=1 2 -1 -4 -5 -3 -7 14 9 -9 11 -10 17 -14 19 16 -16 -12 -19 21 -21 -2 -23 -24 25 -25 -26 -22 29 -29
right_child=7 5 3 4 -6 6 -8 8 10 -11 12 -13 13 -15 15 -17 -18 18 -20 20 27 22 23 24 26 -27 -28 28 -30 -31
leaf_value=-257.55788426405132 -0.10099049514283479 -0.10044095179338608 -75.380309960582878 18.238775119587768 -6.5549313550517327 7.6016643191366562 -0.10007634789728992 -47.110037922004153 -17.298579329304967 -0.10007414391426497 -0.12328686235177572 -0.10007192483939692 -0.10037263739473411 -7.1409966661588458 -31.131283614935445 -0.10011582161874469 -0.10011125835625843 -53.535861741627599 -0.1001605368038445 -4.8022014114880882 -3.0382103684317778 20.040516891090352 -18.355824805537587 23.083878231202785 1.2731711038559477 -0.10022851264520927 -0.026531262790429184 2.853899725282504 -1.0998730193402155 -0.1797941806950156
leaf_weight=0.0034941424128192003 191.42798197633891 1.2615551213565073 0.0079685339551359702 0.010905810457188636 0.015488984376133885 0.012984089316887437 0.017425192869268358 0.010636042396072298 0.011628918724165604 0.093842248767031289 7.3122076999454491 0.046389565890423312 0.040344498572191044 0.01420267879276569 0.0096676853303161447 0.57119045054882289 0.024235169461462647 0.0037428098935075029 0.2969944414954836 0.021270177178733252 0.034076791700181519 0.0099301908630881064 0.0054774758900809619 0.012939821521285921 0.33477168048469597 0.05245929867669552 2.5490676144368831 0.03382973675616785 0.24631846484737696 5.782755591753129
leaf_count=11 206564 1567 22 18 23 20 23 21 19 128 2580 65 41 28 24 753 29 23 410 23 7 19 17 25 86 62 361 14 26 596
internal_value=0 -1.07758 -37.0663 -14.6462 3.68934 -0.0230308 3.1884 -0.106801 -0.249471 -4.88576 -0.186771 -3.54725 -0.161342 -1.93357 -0.101246 -0.595906 -8.94891 -0.148644 -0.765192 -0.0997535 -0.232052 -0.0955896 0.253149 0.186648 0.221086 4.48696 0.124345 -0.216109 -0.200247 -0.16215
internal_weight=0 1.32982 0.0378575 0.0343633 0.0263948 1.29196 0.0304093 208.946 7.82999 0.104478 7.72551 0.0580185 7.66749 0.0545472 201.116 0.605093 0.0339029 7.61294 0.300737 200.511 6.11825 194.393 2.96465 2.95472 2.94924 0.0653991 2.88384 6.09698 6.0629 5.81659
internal_count=213605 1684 74 63 41 1610 43 211921 3315 149 3166 84 3082 69 208606 806 53 3013 433 207800 666 207134 570 551 534 87 447 643 636 610
is_linear=0
shrinkage=0.1


Tree=10
num_leaves=31
num_cat=0
split_feature=14 9 16 9 16 1 28 12 23 11 7 16 21 25 13 25 1 8 2 9 23 22 23 20 26 6 2 12 10 10
split_gain=55.8708 2225.46 13643.7 47804.7 65150.6 32.4943 228.771 145.333 349.264 20.4759 21.4729 21.4966 131.519 174.15 20.9962 179.004 52.6863 638.712 1370.39 159.927 37.7928 43.1205 44.778 105.016 157.23 40.1474 31.7658 243.377 527.576 18.7701
threshold=-2.68371636282092 -1.1597732253708799 -0.04627586712788518 -1.2527546653271298 0.4815865065787841 -3.4181197678159694 -0.34969108668518839 2.145308399141745 0.99363408943009668 -0.90966119420041369 -6.0974368500900304 2.5766709848883971 -1.308014193780153 0.044643481918680332 -3.7804529389881618 1.0435680437709987 1.5555230328738079 0.68680558017372439 -0.55891976275011057 5.2027924514185449 -0.68550351017234146 0.50938407693566778 -0.066428719965983471 -0.32457696211190762 -1.7986620471537969 1.5015681308132567 1.8554404441539152 -1.8483605501410996 -1.3050976509334768 -0.28681923024941663
decision_type=2 2 2 2 2 2 2 2 2 2 2 2 2 2 2 2 2 2 2 2 2 2 2 2 2 2 2 2 2 2
left_child=1 2 -1 4 -4 6 -2 -8 -9 10 -7 14 13 -13 15 20 19 18 -18 26 25 22 23 -22 -25 -12 -16 28 -28 -14
right_child=5 -3 3 -5 -6 9 7 8 -10 -11 11 12 29 -15 16 -17 17 -19 -20 -21 21 -23 -24 24 -26 -27 27 -29 -30 -31
leaf_value=1.5141743915666102 -8.2779740867436651 -0.19103895941524746 -49.987966995873386 -0.10006642833211521 -917.02154607658622 0.8539017453412554 -0.24558986813248884 -0.1006356864401403 -16.961071912672406 -0.089655122604009457 1.5915262932981296 -0.11645366314156214 -1.3162043089594138 -4.8024749412807042 -0.14031365115143532 2.3485357269824831 -51.77800609522739 -0.10414067131835887 -0.10007210857407117 -5.6988604043488786 -0.12304720646829054 0.74764173274370904 -0.095134355708707832 -0.13543509338939558 -4.1585020086611433 -0.18253564443914783 -26.946659539267213 -0.10006930099626912 -0.10006649481524246 -0.21551962335841945
leaf_weight=0.070101179785524437 0.036684984073546256 5.8113353475402212 0.0020044285488438627 0.010611357400193699 0.0015267979109694352 0.20413225604769891 3.1612511822134568 0.039696130192273985 0.017793244948093909 147.90972156890325 0.25859370278628535 0.1690662810633049 0.15832252610543118 0.1493815261974305 27.343788482404133 0.31616424024105061 0.0077402463893098154 0.25424505751294035 0.015224215690976869 0.052054517577817871 0.72908532181016394 0.44527673383832223 3.1884078559419446 0.19318752404824124 0.19540484033093508 0.25174419391260017 0.011174548701092135 0.22891353850718488 0.021220403839834034 7.2351450437613432
leaf_count=27 32 1579 17 16 45 56 1574 35 32 183220 43 26 54 36 25274 58 23 235 22 25 15 32 165 4 45 11 20 334 32 518
internal_value=0 -0.424964 -16.5617 -106.159 -424.868 -0.112445 -0.4257 -0.336206 -5.31902 -0.107059 -0.169197 -0.174263 -0.324795 -2.31463 -0.139622 0.0375129 -0.174992 -1.54676 -17.5183 -0.161242 -0.101351 -0.189185 -0.286059 -0.830711 -2.15845 0.716401 -0.1508 -1.24813 -9.36072 -0.23909
internal_weight=0 5.89558 0.0842438 0.0141426 0.00353123 192.593 3.25543 3.21874 0.0574894 189.338 41.4283 41.2241 7.71192 0.318448 33.5122 5.57786 27.9344 0.27721 0.0229645 27.6572 5.2617 4.75136 4.30609 1.11768 0.388592 0.510338 27.6051 0.261308 0.032395 7.39347
internal_count=213605 1684 105 78 62 211921 1673 1641 67 210248 27028 26972 634 62 26338 373 25965 280 45 25685 315 261 229 64 49 54 25660 386 52 572
is_linear=0
shrinkage=0.1


Tree=11
num_leaves=31
num_cat=0
split_feature=1 28 14 23 13 25 16 9 8 12 9 17 20 13 25 20 20 23 28 22 9 23 15 0 15 2 10 9 2 13
split_gain=33.6885 3335.98 193.385 917.935 870.084 2129.47 14.6093 23.4558 970.401 2866.15 16.6711 47.728 60.3249 15.9416 234.737 712.465 1719.83 53.3457 142.57 53.2343 46.1846 46.0799 108.76 27.9009 259.028 1741.63 62.197 397.502 36.3287 584.072
threshold=-4.9165245842106797 -0.34969108668518839 2.426609238099712 0.3421932314961047 0.96726452572215493 -0.653891558397108 2.3432372903467309 0.64743885732081374 -1.3923874205143671 -0.50820557218880624 -2.4714538599024949 1.0668162221951585 -0.32457696211190762 -3.7804529389881618 0.80897264981603312 1.8229292951218821 -0.98442216472541733 -0.59138336124808433 -0.34609280911064427 0.50938407693566778 -1.0000000180025095e-35 -0.066428719965983471 -1.5702008900275561 -2.0690754207871329 -2.6282486990870688 -1.5622277896003591 -2.3099073403779351 -1.1091416498044935 1.3013095123508933 -2.4879431365010745
decision_type=2 2 2 2 2 2 2 2 2 2 2 2 2 2 2 2 2 2 2 2 2 2 2 2 2 2 2 2 2 2
left_child=1 -1 -3 -4 5 -5 13 10 9 -9 11 -8 -13 14 17 16 -16 18 -2 21 -21 22 -19 24 25 -15 27 -26 -28 -30
right_child=6 2 3 4 -6 -7 7 8 -10 -11 -12 12 -14 23 15 -17 -18 19 -20 20 -22 -23 -24 -25 26 -27 28 -29 29 -31
leaf_value=-168.01590803374961 3.7247133371037799 -0.13456689761175755 -0.10088588894049598 -0.10015953044771815 -0.10015723318418457 -103.27894623267044 -0.12055343710175458 -64.621284729971919 -0.15436246225643757 -0.10008105940019414 -0.13296925972062443 -0.11798072075062477 -2.885725248755088 -67.094779655722718 0.09288947244297549 -0.11856646336782095 33.431977447163504 -2.4395026482046505 -0.59800678930533924 1.8804953134062679 -0.14695169606718489 -0.095338580883626456 -0.1251264486476347 -0.092682519350112402 -23.337204929786207 -0.10005622459192952 -0.19029093201188241 -0.10005811561205605 -60.969822346402616 -1.0752122895042813
leaf_weight=0.0011896612150198429 0.13014953664776563 1.0914555022253307 0.062143954725797867 0.0041325432212033749 0.0061802415875773882 0.0038767618999544723 0.79486016223630152 0.0092938140314799966 1.3408174129890564 0.026561768274404929 15.804915028230539 0.14972678710183332 0.16611975460172021 0.0044779645977546237 0.044033007670725766 0.19100239500404717 0.023856040090322855 0.30236736947446607 0.18439806401717351 0.22947454011669019 0.22014477729680984 3.7308630064975876 0.61816194080165432 148.49632388104681 0.008606814847894384 0.029077978353332035 9.1572861270719432 0.050884067401130717 0.0016428516828455022 0.18176472440703229
leaf_count=19 37 732 39 14 10 32 29 22 337 43 2837 41 13 17 26 20 50 47 51 37 4 207 18 204516 17 58 4110 91 4 127
internal_value=0 -0.645389 -0.474884 -5.34091 -28.2899 -50.042 -0.106836 -0.191591 -0.588526 -16.8241 -0.159287 -0.533772 -1.57368 -0.0973596 0.0673197 3.00898 11.8082 -0.0733066 1.19059 -0.151243 0.887807 -0.251682 -0.885332 -0.103277 -0.270037 -9.04035 -0.238729 -3.46188 -0.218201 -1.61171
internal_weight=0 1.16898 1.16779 0.0763335 0.0141895 0.00800931 181.897 18.2923 1.37667 0.0358556 16.9156 1.11071 0.315847 163.605 5.67445 0.258891 0.067889 5.41556 0.314548 5.10101 0.449619 4.65139 0.920529 157.93 9.43374 0.0335559 9.40018 0.0594909 9.34069 0.183408
internal_count=213605 846 827 95 56 46 212759 3322 402 65 2920 83 54 209437 497 96 76 401 88 313 41 272 65 208940 4424 75 4349 108 4241 131
is_linear=0
shrinkage=0.1


Tree=12
num_leaves=31
num_cat=0
split_feature=8 12 2 5 18 3 19 23 2 7 17 26 0 18 12 12 20 5 13 28 3 28 12 11 16 27 20 12 15 26
split_gain=10.6035 13.4727 121.692 315.662 10.9572 88.7131 55.4099 276.448 668.743 80.0185 1597.51 15.58 37.4409 24.2528 1752.96 43.5142 245.993 15.581 1396.9 237.648 15.2173 547.441 81.2135 10.3882 333.278 838.127 56.5157 10.3049 918.608 4061.27
threshold=1.0781317554331096 2.9019578013245924 -0.88941978387937304 -1.2833608990570833 2.6052741483218456 3.386784394288926 1.0709143554066201 -0.35410394517620819 -0.050615478080850936 0.82357973861652034 -0.92980053743811875 1.7993821025105399 -0.2392521698487719 1.184368143867331 -1.3169879772514468 -0.051998047892948651 -0.16257765693946313 -2.286805954386351 -2.7379757745281146 -0.35280959391646 -1.2878261414429881 -0.35320940253585381 0.56413264622160131 -2.9739345889627198 1.7242400684875629 0.1445501516844919 0.47507149372685759 1.6486582239952321 -2.8594422857000605 -0.11848239692576272
decision_type=2 2 2 2 2 2 2 2 2 2 2 2 2 2 2 2 2 2 2 2 2 2 2 2 2 2 2 2 2 2
left_child=4 23 3 -3 11 6 9 8 -8 -6 -11 17 13 20 -15 16 -16 18 -1 -20 22 -22 -13 24 26 -26 -2 -19 29 -29
right_child=1 2 -4 -5 5 -7 7 -9 -10 10 -12 12 -14 14 15 -17 -18 27 19 -21 21 -23 -24 -25 25 -27 -28 28 -30 -31
leaf_value=70.476386043050425 -0.10596740471920739 -22.744046036868191 -0.1017476207408039 -0.10005223736213149 -0.070402917370090232 4.6925550595783392 33.075293297575513 0.40022164437478386 -0.10005475479880113 -84.01656596009029 -0.10005440280501957 -0.10013763616086623 -2.2143146403615392 -59.271372436114611 -0.10206795619671448 -0.23827414069214303 -14.974104324437604 -0.081962436072298903 23.839818917930881 -0.10607132874606287 54.643707965984895 -0.11029771600356751 -9.7434425360374242 -0.14000681374201426 -0.10015861656704182 -29.674553950236685 5.6899798984765457 -124.77176647296801 -0.14875249365159729 -0.10005398042036975
leaf_weight=0.0028338071588223093 0.64762135019504796 0.008832579484938291 0.22930925808031916 0.020317215501563818 1.9832496495828267 0.041706192111352958 0.0090428595140110701 0.36734865326434363 0.018520745419664308 0.0023833210683505959 0.047106400626944267 0.055337889226167891 0.094950749189602557 0.0050700142676304285 0.064475679420907706 1.3759437542592989 0.013440414469491513 126.540841371903 0.0041771043810854272 0.53094866774824723 0.0018266919017680952 4.9715601109632335 0.0103697968297638 26.800079117101635 0.032871398070710711 0.013525308102089184 0.017272359250213754 0.0032084242154724043 5.1274047147899031 0.01407770242076356
leaf_count=18 727 9 332 50 1977 57 20 104 34 21 88 94 42 15 49 185 37 178202 9 428 9 1192 21 23926 56 19 35 13 5803 33
internal_value=0 -0.156769 -0.875392 -6.96133 -0.0891755 0.119624 0.0410622 1.12497 10.7839 -0.169514 -4.1413 -0.0928897 -0.242919 -0.214113 -0.573158 -0.368461 -2.66747 -0.0854089 0.451669 0.0808464 -0.110161 -0.0901869 -1.62202 -0.150018 -0.527207 -8.72152 0.0445975 -0.0876029 -0.226339 -23.24
internal_weight=0 27.7698 0.258459 0.0291498 141.286 2.46936 2.42765 0.394912 0.0275636 2.03274 0.0494897 138.816 6.59298 6.49802 1.45893 1.45386 0.0779161 132.223 0.53796 0.535126 5.03909 4.97339 0.0657077 27.5114 0.71129 0.0463967 0.664894 131.686 5.14469 0.0172861
internal_count=213605 25154 391 59 188451 2301 2244 158 54 2086 109 186150 1644 1602 286 271 86 184506 455 437 1316 1201 115 24763 837 75 762 184051 5849 46
is_linear=0
shrinkage=0.1


Tree=13
num_leaves=31
num_cat=0
split_feature=18 19 23 25 8 7 28 28 3 17 28 26 5 28 16 24 24 12 18 8 10 13 14 24 28 9 25 11 1 14
split_gain=52.9559 332.766 12623.7 17809 163.632 690.294 1322.7 110.568 348.978 85.0494 2605.04 728.011 32.569 419.514 42.1137 715.802 693.988 575.039 220.228 1162.98 70.939 384.494 677.753 35.5903 1774.84 192.563 306.337 28.7499 93.0198 25.7155
threshold=2.6052741483218456 1.0709143554066201 -0.47723814307008927 0.78899817797926008 -2.0151054563564341 0.33551436264043372 -0.28924002343284655 0.014614527306438059 1.7977759502409592 -1.4214418881323119 -0.3424545506741607 -1.6101089116242513 -1.515915403201948 -0.35320940253585381 2.5766709848883971 -2.9085912580171533 -1.6154836573952103 -2.2312251862114905 -1.2454272637634443 -0.32712397146897482 0.95446315172720786 -1.480481925834858 0.99212400163065084 2.7820186382825125 -0.35320940253585381 -2.0325723995469867 1.8601499108891639 1.2360849485023586 -0.11160820035623899 1.1455688607747734
decision_type=2 2 2 2 2 2 2 2 2 2 2 2 2 2 2 2 2 2 2 2 2 2 2 2 2 2 2 2 2 2
left_child=12 4 3 -3 5 -2 -7 -4 -9 10 -6 -12 13 -1 29 -16 -17 -18 19 -19 21 22 -20 -14 -25 26 -26 -11 -29 -15
right_child=1 2 7 -5 9 6 -8 8 -10 27 11 -13 23 14 15 16 17 18 20 -21 -22 -23 -24 24 25 -27 -28 28 -30 -31
leaf_value=-7.4477613831649352 -0.10004873271895312 -17.091311564168116 -0.20180700163048867 -234.41338773521397 -134.41087727206585 108.5255608305369 -0.10004819681675391 -0.10007827387450088 15.853511502475484 -0.12057083822131115 -73.799752102582488 -0.0093153556348462008 -0.09446743064352954 -0.089461130055243879 69.652309225543036 -71.306600661473297 -59.148136826783997 -47.213417014124467 -38.089613319465677 -0.10036142173612993 0.021981941590095554 -0.10648211618457043 -0.10004652556260435 -60.205741393591907 -0.1000544951411613 -0.14691321156467624 -25.571941709859352 -12.346606612909243 -0.10005071104847281 -1.0639671394186443
leaf_weight=0.081732859965182203 0.020367901662418506 0.011770755921215126 0.30453977260238951 0.0055481262868539707 0.0014890832244418553 0.0018411864875816121 0.0028657089278568615 0.050631766490028013 0.018803485719408125 3.4029630953067596 0.0013568575097159105 0.091444996200154463 150.44027570507035 5.1868346164118035 0.0014336433087011038 0.0014043651171961038 0.0016935347521211943 0.0063676189238323485 0.0078969050373416394 0.029574267357716025 0.59084586160315666 0.097220805444521941 0.011586406006244943 0.0049912083723637748 0.01198097907782554 0.79036350032316982 0.0077922349300934409 0.0081655593812683946 0.025795182766159885 0.28570097851644494
leaf_count=36 45 28 51 27 8 17 31 69 10 2090 9 74 207990 1899 5 5 6 30 20 66 59 39 25 12 47 600 4 20 51 232
internal_value=0 -0.47814 -3.24604 -86.7107 -0.173591 7.87609 42.3908 0.619228 4.22025 -0.230751 -3.1937 -1.08821 -0.107319 -0.330054 -0.236533 -0.940308 -1.07586 -0.943508 -0.810928 -8.44711 -0.423028 -2.67601 -15.4978 -0.098038 -0.757029 -0.390769 -10.138 -0.149464 -3.04463 -0.140337
internal_weight=0 3.94758 0.391294 0.0173189 3.55629 0.0250748 0.0047069 0.373975 0.0694353 3.53121 0.0942909 0.0928019 157.558 6.30229 6.22056 0.748023 0.74659 0.745185 0.743492 0.0359419 0.70755 0.116704 0.0194833 151.255 0.815128 0.810137 0.0197732 3.43692 0.0339607 5.47254
internal_count=213605 2530 185 55 2345 93 48 130 79 2252 91 83 211075 2422 2386 255 250 245 239 96 143 84 45 208653 663 651 51 2161 71 2131
is_linear=0
shrinkage=0.1


Tree=14
num_leaves=31
num_cat=0
split_feature=5 6 22 11 16 6 20 10 17 26 21 13 22 2 15 13 18 3 1 19 27 11 8 3 19 13 10 26 17 25
split_gain=48.5498 598.976 980.214 3685.58 389.607 119.519 86.3975 68.0199 150.321 66.492 587.405 65.0584 33.6239 142.749 18.8322 35.8121 16.2741 155.902 542.804 148.681 359.151 109.898 318.663 962.023 95.1062 215.924 25.0514 11.2287 203.696 1607.44
threshold=-2.286805954386351 -1.8739605563223412 -1.0000000180025095e-35 -0.13027500807152284 0.8275329152698031 -0.22884026218741471 -0.11551516759983464 -1.4292221558405134 0.12019890353262462 -0.67374514636389038 -1.6119959034767866 0.74941879224044494 1.2210131212174451 0.36079911879212245 -0.52021481920626511 -0.46778944366674008 2.6052741483218456 -1.262024980472668 -0.17802552443682593 1.7250159406363326 0.5980352032750228 -3.5439995401034765 -1.9422664919716108 -0.67951267014784367 1.0709143554066201 -0.29130934541794573 2.1805532526843714 1.7993821025105399 -2.4828671623839011 0.31094859186068041
decision_type=2 2 2 2 2 2 2 2 2 2 2 2 2 2 2 2 2 2 2 2 2 2 2 2 2 2 2 2 2 2
left_child=1 7 3 -3 5 11 -5 8 -1 10 -9 -4 -12 -14 -11 -16 27 18 -18 21 -21 -19 23 -23 26 -26 -24 -2 29 -29
right_child=16 2 4 6 -6 -7 -8 9 -10 14 12 -13 13 -15 15 -17 17 19 -20 20 -22 22 24 -25 25 -27 -28 28 -30 -31
leaf_value=21.470947583946323 -0.091180527159999386 -102.83229645333786 -0.10308288026117909 -13.981087058210623 -13.005755639162871 10.737975551577456 -0.10004307770888013 -32.695290012527316 -0.1000390263810578 -0.044923633167845804 -0.10614126168936591 -7.7197138128396112 -18.607146272619662 -0.1000369447045326 -2.5138174869160834 -0.36264574223206125 -35.412134850592004 2.3260690229286185 -0.10004387543098303 -0.10007061714843755 -25.762775263357209 -43.159619930462128 -0.11742911240317114 -0.10004584464124069 -15.867088426682157 -0.098568996929887215 -1.6070227291179471 -44.753408667136263 -0.18670538208663542 3.0201295797093888
leaf_weight=0.0046358462059278302 137.76394189161093 0.0048668790646853024 0.077077037560801698 0.0072040690283756694 0.030602586278700938 0.0092267814445155527 0.011875203810632229 0.0061341546626019058 0.010657334623829229 3.0867748254527076 0.094031892886617924 0.013123926561116273 0.0053999765368644105 0.018263223090625603 0.08309373737072645 1.1272255882457525 0.0056637823881647903 0.16345622173867091 0.018810342225897385 0.018181647057584543 0.00779004022453919 0.0069670913312678264 2.922890376024188 0.020325164560516806 0.012681517630288176 0.02754871769317797 0.11743678992570483 0.0089578896447609635 4.3715073053170102 0.032948362997558434
leaf_count=13 207289 18 82 18 22 35 29 23 33 174 20 34 15 60 51 218 18 57 45 42 21 20 2098 47 32 59 34 56 2901 41
internal_value=0 -0.431634 -6.56316 -25.1557 -3.1392 -0.102399 -5.34133 -0.218815 6.43881 -0.241845 -2.52641 -1.21128 -0.95404 -4.32339 -0.176011 -0.510333 -0.101322 -0.320124 -8.27194 -0.261101 -7.79743 -0.201268 -0.334193 -11.0922 -0.238882 -5.06918 -0.174967 -0.0962105 -0.253222 -7.19195
internal_weight=0 4.59019 0.153976 0.0239462 0.13003 0.0994277 0.0190793 4.43622 0.0152932 4.42092 0.123829 0.090201 0.117695 0.0236632 4.29709 1.21032 145.499 3.32175 0.0244741 3.29728 0.0259717 3.27131 3.10785 0.0272923 3.08056 0.0402302 3.04033 142.177 4.41341 0.0419063
internal_count=213605 845 238 65 173 151 47 607 46 561 118 116 95 75 443 269 212760 2473 63 2410 63 2347 2290 67 2223 91 2132 210287 2998 97
is_linear=0
shrinkage=0.1


Tree=15
num_leaves=31
num_cat=0
split_feature=5 10 10 17 7 14 17 0 4 7 23 22 15 8 5 8 26 19 7 8 28 17 13 8 18 1 5 14 1 15
split_gain=188.53 1224.39 164.691 122.582 249.613 1459.68 2955.02 106.375 65.5418 33.097 15.377 14.7439 13.4632 325.813 4312.73 170.38 81.292 143.711 27.7294 759.002 19.4951 2401.42 42.2392 18.4759 2908.72 906.268 993.331 556.144 98.5025 3664.12
threshold=-2.286805954386351 -1.5568425845535681 1.134220259937041 -0.71598293412482306 -0.81779210659602064 -0.041456289091545577 -1.1282952678803742 -1.2920501519691225 3.246004812090828 0.59936541446781144 -0.2634230807653411 -1.0000000180025095e-35 -2.8594422857000605 -2.5053896822451089 -1.7316742082617314 -2.1849241103129136 -3.5114853739636156 -0.47376816960217316 0.76457996155656482 -1.9422664919716108 -0.27328765951903405 -2.4828671623839011 -3.7804529389881618 -2.5053896822451089 -3.0010925510569875 -2.0742024508347905 -1.4083997414332519 -2.5201515366619258 -0.17149234482866171 -2.2019242896104219
decision_type=2 2 2 2 2 2 2 2 2 2 2 2 2 2 2 2 2 2 2 2 2 2 2 2 2 2 2 2 2 2
left_child=1 -1 3 4 -3 6 -6 8 9 -5 -4 -12 13 -2 -15 -16 17 -17 20 -20 21 -18 -22 24 -14 -26 -27 -28 29 -29
right_child=12 2 10 7 5 -7 -8 -9 -10 -11 11 -13 23 14 15 16 18 -19 19 -21 22 -23 -24 -25 25 26 27 28 -30 -31
leaf_value=-14.786745486754578 6.6768712297819723 -1.1151559434063945 0.49961003715639535 -1.6525594796633936 -0.10003496055653074 -1.5575563844551668 -97.471123931590682 -2.8983737472130366 -0.29178108887503745 -0.28344006061349941 -0.040151269116910693 -0.59927280624758106 -146.18327854434526 -143.66028561772106 17.211569624110261 -0.10003610315348632 -120.82531725618536 22.597153005651194 78.693518989835425 -0.1000409739540455 2.0411737939184897 -0.21495561471023331 -0.029858586135434503 -0.096402735025880079 -45.675098466647121 99.06688983454778 55.153003449605166 -187.89691335133995 -0.031485067297639592 -1.2638136068822718
leaf_weight=0.060551881756364057 0.073847243402269558 0.17642419852702729 0.43146393353238988 0.74149447995375406 0.0079298143821515971 0.061343837912890685 0.0051349912005450088 0.23458534991215785 1.649693380999548 0.23174981873920553 2.7939605137048762 0.56740931462681388 0.0013690824101718615 0.0020897150224080665 0.0057764699158776569 0.0076045169835300182 0.0016566338172528386 0.0044058510890898853 0.0012691392330452791 0.033292221504409691 0.10367318119097291 0.47024099826965943 1.9654012518869088 131.56782714471098 0.0043883852598433073 0.0010084007508338591 0.0018098551788040531 0.0010649804316968927 0.94069802645704947 0.085927071790901755
leaf_count=47 96 28 32 111 34 54 25 35 301 28 100 50 19 17 29 26 22 24 8 107 25 216 1031 210485 44 13 8 9 307 274
internal_value=0 -0.628855 -0.504632 -1.04425 -3.16383 -8.02129 -38.3708 -0.858197 -0.675731 -1.32654 -0.0623941 -0.134533 -0.0952395 0.127118 -0.0592426 0.0564721 0.0181748 8.22614 -0.020101 2.79336 -0.0583688 -0.638368 0.0739127 -0.0997155 -0.52031 -0.32761 -0.134499 -0.231667 -0.329205 -3.54863
internal_weight=0 6.96174 6.90119 3.10836 0.250833 0.0744086 0.0130648 2.85752 2.62294 0.973244 3.79283 3.36137 135.273 2.66926 2.59541 2.59332 2.58754 0.0120104 2.57553 0.0345614 2.54097 0.471898 2.06907 132.604 1.03627 1.0349 1.03051 1.0295 1.02769 0.0869921
internal_count=213605 845 798 616 141 113 59 475 440 139 182 150 212760 1601 1505 1488 1459 50 1409 115 1294 238 1056 211159 674 655 611 598 590 283
is_linear=0
shrinkage=0.1


Tree=16
num_leaves=31
num_cat=0
split_feature=8 10 14 16 17 16 21 14 10 15 3 10 15 25 28 22 18 27 15 4 12 15 18 11 23 28 15 23 2 22
split_gain=67.2411 284.146 762.872 1252.13 452.09 1144.83 243.113 1338.45 539.423 2243.9 463.061 150.085 836.412 138.959 1067.31 133.477 805.095 76.7784 466.885 157.461 55.6896 968.935 2105.98 104.881 85.9369 68.1948 264.846 47.7598 83.5633 29.6772
threshold=-1.9422664919716108 0.56389842072332563 1.5581763066583649 1.4050763876865064 2.0138907424937318 0.30219575323550424 0.93075715294581962 -2.090846704234675 -1.1643848834779236 -1.0778447421827078 -1.0882574145000958 0.51606302402495974 -1.1023558695783067 1.1052605306091186 -0.35045072306203667 -0.59754013020843544 -1.1413940958550961 -2.0486895194847121 -2.8594422857000605 0.57117183809754046 0.12684925842965317 -1.5702008900275561 -0.24684660711182918 0.14760994816794246 1.2160221520000229 -0.33321897156616404 -0.47412789202537592 -2.3303982280418793 0.18660630418326066 0.73503059702384366
decision_type=2 2 2 2 2 2 2 2 2 2 2 2 2 2 2 2 2 2 2 2 2 2 2 2 2 2 2 2 2 2
left_child=1 2 4 -4 6 -6 11 -8 9 -9 -11 20 -13 14 -3 16 -10 18 19 -2 21 22 -1 24 -23 26 -22 28 -16 -29
right_child=17 13 3 -5 5 -7 7 8 15 10 -12 12 -14 -15 27 -17 -18 -19 -20 -21 25 23 -24 -25 -26 -27 -28 29 -30 -31
leaf_value=-0.10022746923167039 -2.1049213717358586 53.245209132975134 -0.10020665910766907 -52.517506216599081 -0.10003740972973174 -55.143622963187752 -31.949940433864647 -93.240796102106259 -47.679644880463115 -29.090395598984315 -0.10004227286346755 -50.370054454139897 -0.10003745317292163 2.353983646888302 -0.1002890402502717 -0.10396966392937874 -0.10003787532312165 -0.089322600369604085 -0.2411349389283034 -6.2194407332010115 -17.037784620771067 -0.1094689612113971 -63.361482646405193 -11.212028036521385 -8.9192306009570199 -0.19386942630418938 -0.10014606497814303 -0.14977681383429609 -13.271649839706837 1.3320178930600701
leaf_weight=0.015750487887999043 0.22608353362611033 0.0037491621915249898 0.011314518539016105 0.0076307067793095476 0.012322655504073483 0.0054496492584965956 0.015698779370410643 0.0032207614804391485 0.004203131604299414 0.0068988451488376503 0.02736354763031823 0.0039778642094461239 0.019707676071447966 0.24330338558930442 0.013176492577531174 0.28518556772450177 0.023111375515131982 119.14984641391605 9.4599880490649575 0.15802067686871624 0.011807011110818208 0.47154308685755109 0.0079026812454685014 0.0089992879876497067 0.011338905720299108 1.8625987443711085 0.042327135714008327 5.0544883267032601 0.0075920852541457853 0.1388730719786383
leaf_count=32 32 23 22 25 44 31 36 22 17 25 91 12 58 88 26 395 66 205330 3204 17 36 708 28 27 33 1560 87 1356 21 153
internal_value=0 -0.404817 -1.21262 -21.2127 -1.07918 -16.9784 -0.979034 -3.38457 -2.10325 -13.4389 -5.93734 -0.620859 -8.54263 0.0179837 -0.0909411 -0.743573 -7.42154 -0.111498 -0.379905 -3.79764 -0.543716 -1.46636 -21.2362 -0.515681 -0.316337 -0.295558 -3.79436 -0.129292 -4.91516 -0.110153
internal_weight=0 8.31953 2.85835 0.0189452 2.83941 0.0177723 2.82163 0.365682 0.349983 0.0374832 0.0342624 2.45595 0.0236855 5.46118 5.21788 0.3125 0.0273145 128.994 9.84409 0.384104 2.43227 0.515534 0.0236532 0.491881 0.482882 1.91673 0.0541341 5.21413 0.0207686 5.19336
internal_count=213605 5022 3355 47 3308 75 3233 652 616 138 116 2581 70 1667 1579 478 83 208583 3253 49 2511 828 60 768 741 1683 123 1556 47 1509
is_linear=0
shrinkage=0.1


Tree=17
num_leaves=31
num_cat=0
split_feature=27 15 17 1 8 28 9 25 27 14 21 8 5 13 23 23 18 22 18 19 7 15 23 14 15 2 26 17 23 22
split_gain=48.041 194.147 373.115 1575.09 53.7 445.244 3080.42 6937.6 9519.2 103.4 590.401 1066.28 3604.47 5283.49 1359.58 62.8582 244.119 70.8513 177.297 42.9352 354.319 872.78 35.6807 543.673 28.9894 14174.9 1695.1 184.666 23.871 42.895
threshold=-1.4709928679586188 -3.2700061306973169 -2.6937992660015815 -0.57670304659464944 -1.9422664919716108 -0.35045072306203667 0.34258942725427732 0.83186983280288007 0.51468116329783642 -0.87147543344307665 0.95765958562775355 -2.5053896822451089 0.37408254712318589 0.24559729487039089 -1.6560976533719804 1.1933115547573288 -1.1413940958550961 -1.0991852398137596 -0.1926285760840499 -0.62481924554120216 0.9019368892999563 -0.52021481920626511 1.1814491167866683 1.5909512679523041 -3.2700061306973169 -2.4808290452580533 -2.3562568220317717 -3.0088214347860132 0.21317756135079952 -0.098401827317647919
decision_type=2 2 2 2 2 2 2 2 2 2 2 2 2 2 2 2 2 2 2 2 2 2 2 2 2 2 2 2 2 2
left_child=1 -1 3 -3 5 6 -2 8 -8 10 15 12 13 -12 -13 17 -17 18 -7 20 -11 -22 -21 -24 25 -6 -27 -28 -29 -30
right_child=4 2 -4 -5 24 9 7 -9 -10 19 11 14 -14 -15 -16 16 -18 -19 -20 22 21 -23 23 -25 -26 26 27 28 29 -31
leaf_value=-6.9518870278462135 3.9236709442474922 -0.1004778184001221 -0.25153806763417169 -49.154239354863556 354.93326856919157 -25.01826416965633 -199.00925280966916 -0.10044515596672175 -0.10003905777749017 -0.1002535662484019 -0.10002180998204896 -70.984230432171756 -6.1690542846345053 -211.02582939291028 -0.10008321106065332 -31.186508415243214 -0.10003237146448272 -0.077262106316962953 -0.10003206815765944 -0.089577584681522854 -63.698642962420529 -0.10003133050926705 -0.10012627609553214 -29.246293938545104 -0.089122511753272793 84.862902573826744 -18.621348907811129 -0.15320803262110691 6.002414004671266 0.59660816436193742
leaf_weight=0.04378425206358727 0.074404118630077731 0.03323583591827628 12.985276917475073 0.0081510965319474549 0.0011266548605156626 0.0040131254570170425 0.0050274192034582433 0.019478390313452155 0.0046141808569458102 0.080364690350612 0.0023798172333044766 0.0028214820945322424 0.016018329211818783 0.0023705014749713389 0.066032516700091248 0.0032168329262951554 0.011765502658829696 0.66130248181855933 0.0098978674795945354 6.876302541415531 0.0031430936489265093 0.0068833031798685163 0.10350359364952978 0.0068217337045690515 106.50145802336017 0.0023539676039944215 0.0053449806000570579 1.1570069103311875 0.01638686194201 0.14080977966659691
leaf_count=84 26 45 5734 29 44 19 33 13 16 168 23 13 30 28 206 14 45 803 32 3005 17 26 312 8 202271 13 11 416 51 70
internal_value=0 -0.304096 -0.281752 -9.76155 -0.101847 -0.352489 -6.86781 -34.441 -103.817 -0.266642 -1.3595 -8.9953 -28.8557 -105.356 -3.00476 -0.367988 -6.77456 -0.225833 -7.28859 -0.146219 -2.31169 -20.037 -0.118202 -1.90232 -0.0833433 0.381872 0.0796882 -0.0715582 0.00388543 1.16013
internal_weight=0 13.0704 13.0267 0.0413869 115.785 7.96036 0.103524 0.02912 0.0096416 7.85684 0.779818 0.0896226 0.0207686 0.00475032 0.068854 0.690196 0.0149823 0.675213 0.013911 7.07702 0.0903911 0.0100264 6.98663 0.110325 107.824 1.32303 1.3219 1.31955 1.3142 0.157197
internal_count=213605 5892 5808 74 207713 4837 88 62 49 4749 1213 300 81 51 219 913 59 854 51 3536 211 43 3325 320 202876 605 561 548 537 121
is_linear=0
shrinkage=0.1


Tree=18
num_leaves=31
num_cat=0
split_feature=26 15 25 0 1 2 15 15 3 25 21 25 17 28 11 7 8 24 13 9 0 13 1 12 18 4 20 27 26 10
split_gain=33.2639 144.233 20.0226 179.367 19.4798 17.806 7236.98 283.586 245.985 30.5112 145.371 19.0688 117.755 15.5613 92.6405 45.6943 164.633 43.0148 288.952 21.3032 17.8017 888.806 15.853 70.6118 261.661 22.2521 159.376 11.9996 203.966 1394.58
threshold=-2.801278354978781 -3.2700061306973169 1.3294351372508619 -0.57591969287621902 -0.82528036563918439 -2.4808290452580533 -2.8594422857000605 -2.4537784017646653 -1.2878261414429881 -0.94472177177756345 -1.1146724505929388 2.9193524035855245 0.82836525858467158 0.70284508473091778 -3.5439995401034765 1.0636874635916647 -0.97963215810303594 2.4467763762360817 -0.47877547443815432 1.7025002642336335 0.67461896541601329 -1.8462559195589492 -0.68105570682679362 -1.2047561595628735 1.0702903149330478 0.71664871397752672 -0.25498933364801585 -1.6326859773579019 1.7993821025105399 -0.84186031377802173
decision_type=2 2 2 2 2 2 2 2 2 2 2 2 2 2 2 2 2 2 2 2 2 2 2 2 2 2 2 2 2 2
left_child=1 -1 -3 -4 5 6 -2 -8 -9 10 -10 -7 -13 27 -15 17 -17 19 -19 20 22 -22 23 24 -16 -24 -27 28 -6 -30
right_child=4 2 3 -5 13 11 7 8 9 -11 -12 12 -14 14 15 16 -18 18 -20 -21 21 -23 25 -25 -26 26 -28 -29 29 -31
leaf_value=-1.8945655464740154 -241.90245289063202 -0.1713646500169359 -0.087518991916693781 -20.195837524587962 -0.23526821802048936 -0.15214799701021819 27.773458890232742 -25.17999112314336 -0.10077214347060813 -0.27840968235600599 -18.075371637790294 -0.10011992134309018 -13.892618697299435 9.5115328806213082 -0.10016508777274465 -20.7737470605732 -0.10006234135601813 33.443120064376593 -0.10003740622072475 2.3381690216885276 45.478073113786031 -0.10003188048388777 -0.036203809468520032 0.18784903710745138 17.312994486954789 -18.15852423222972 -0.10003514420948552 -0.087724788479792121 -80.387971472198018 -0.10008381823254571
leaf_weight=0.54615695700609634 0.0012406823642553402 5.3480796955048673 0.040867715106803607 0.0049761200434657446 2.1046628566889876 21.108685919402642 0.0035876383917642354 0.0039872468184966028 0.023531408525214008 2.2426487774587036 0.0055631775541857336 0.04238082555229894 0.0072487477737013242 0.010403859821050854 0.034706543650827371 0.004837059901137585 0.018913787615204458 0.0029812346951125735 0.018533651033071256 0.040977182854380234 0.0043880718389761588 0.17138943847749022 4.1523932622405697 0.67386425430584829 0.011485126160550863 0.0055375603321721192 0.041612338392332471 89.359421504560203 0.0024910337670007712 0.016450587348331935
leaf_count=64 16 2292 143 22 2025 20035 14 22 57 469 31 96 25 37 90 19 67 12 71 35 18 540 3950 779 7 21 132 182409 16 91
internal_value=0 -0.346001 -0.189203 -2.27018 -0.103579 -0.185366 -0.450848 -0.31942 -0.363708 -0.320152 -3.5377 -0.156751 -2.11461 -0.08375 0.0846601 0.0657325 -4.31043 0.0858838 4.54791 0.0671935 0.0489302 1.03777 0.0135989 0.447118 4.22945 -0.0607326 -2.22093 -0.0933079 -0.328242 -10.6588
internal_weight=0 5.94008 5.39392 0.0458438 120.114 23.4389 2.28056 2.27932 2.27573 2.27174 0.0290946 21.1583 0.0496296 96.675 5.19202 5.18162 0.0237508 5.15787 0.0215149 5.13635 5.09538 0.175778 4.9196 0.720056 0.0461917 4.19954 0.0471499 91.483 2.1236 0.0189416
internal_count=213605 2521 2457 165 211084 20765 609 593 579 557 88 20156 121 190319 5778 5741 86 5655 83 5572 5537 558 4979 876 97 4103 153 184541 2132 107
is_linear=0
shrinkage=0.1


Tree=19
num_leaves=31
num_cat=0
split_feature=28 0 13 3 24 1 27 16 19 9 2 15 3 14 3 23 15 13 12 18 3 1 12 18 17 26 15 10 25 25
split_gain=138.451 253.333 190757 885.967 96.4034 669.062 5667.85 12472.4 24419.4 111.005 90.2641 23233.1 57040.2 152.872 391.275 41.0848 648.943 24.5298 65.6792 1080.82 2026.88 42.8197 35.2981 31.5364 116.354 19.3836 41.8937 17.4051 101.711 80.8307
threshold=0.70284508473091778 0.67461896541601329 -1.8462559195589492 -2.0322520946826481 2.4467763762360817 -1.8597527311214528 0.29602098947625338 -0.015697800216308202 1.4452573654231422 -0.36446897600723449 -2.8958321833817666 -2.2019242896104219 0.73673668610440946 -0.69241009588280422 -0.44191754240393061 -2.3303982280418793 -2.6282486990870688 0.27383848790816967 -1.4189162349713935 1.1392112252286588 -0.0092890586434833423 0.93775923147015416 2.4538135460322028 2.3637998556441544 0.8735484726065933 -2.801278354978781 -3.2700061306973169 2.6842350235545376 1.0738174819577206 -0.76856034091706571
decision_type=2 2 2 2 2 2 2 2 2 2 2 2 2 2 2 2 2 2 2 2 2 2 2 2 2 2 2 2 2 2
left_child=25 4 -3 -4 10 -6 7 9 -9 -7 11 12 -2 14 -13 16 -12 21 19 -19 -21 22 -17 -20 -25 26 -1 -27 29 -29
right_child=1 2 3 -5 5 6 -8 8 -10 -11 15 13 -14 -15 -16 17 -18 18 23 20 -22 -23 -24 24 -26 27 -28 28 -30 -31
leaf_value=-0.88765896447560744 -850.5114177143729 -1194.4604682427937 -88.953859506410652 -0.17360369198292636 -0.25440633253654349 -0.10003976584612956 -0.11573017477882482 -433.02479927941044 -0.10002627529272026 -18.669997412954789 -23.272504370740261 -55.03437569134428 191.98058048332192 -0.30099766026456071 -0.10002029550863732 -0.071330317578247607 -0.10169127571717562 -0.10133979150836668 -0.25115502413972196 -79.827522471951326 -0.10013319718867886 2.1037333386751986 -3.7517357839010517 -0.10015274952229469 -15.203297576289367 -0.11089482451986631 -0.15720605211508759 1.6747216081067475 2.2185029214554137 -0.10387774943294932
leaf_weight=0.98473588032762371 0.0010583113081048747 0.0013396290973055605 0.0011254438722971818 0.90590518933870079 0.96096179877503263 0.0080027609765238473 0.13173082742031617 0.0023098693624380552 0.002988689171615988 0.0053850434911646436 0.012946492031915113 0.0018203544798715676 0.0010412295600547906 0.80455270172525961 0.0045060217115388415 7.4480036052934713 0.18210017741617335 0.1845066441163192 5.8054384452914807 0.0050160908255006348 0.0087528176133432126 0.090531788927058154 0.026150668825721257 0.022231124493947343 0.0066197829839323178 93.066438294049959 3.8743733844168364 0.26912235407126406 0.21221357072554159 5.0543248248331052
leaf_count=61 16 23 5 1554 160 27 37 32 14 19 28 20 26 314 42 7876 439 507 4615 24 26 41 16 53 23 194705 2232 128 101 441
internal_value=0 -0.421159 -2.04489 -0.283762 -0.327313 -1.22513 -7.42677 -58.9665 -188.831 -7.56953 -0.258994 -1.28295 -333.506 -0.422753 -15.9069 -0.198638 -1.63969 -0.177966 -0.328373 -2.11825 -29.1453 -0.0580228 -0.0842074 -0.267545 -3.56554 -0.110257 -0.305238 -0.100648 0.071621 -0.0139622
internal_weight=0 16.625 0.90837 0.907031 15.7167 1.11138 0.150417 0.0186864 0.00529856 0.0133878 14.6053 0.812979 0.00209954 0.810879 0.00632638 13.7923 0.195047 13.5973 6.03256 0.198276 0.0137689 7.56469 7.47415 5.83429 0.0288509 103.461 4.85911 98.6021 5.53566 5.32345
internal_count=213605 15937 1582 1559 14355 289 129 92 46 46 14066 418 42 376 62 13648 467 13181 5248 557 50 7933 7892 4691 76 197668 2293 195375 670 569
is_linear=0
shrinkage=0.1


Tree=20
num_leaves=31
num_cat=0
split_feature=28 15 3 13 25 15 19 2 25 26 18 20 11 9 5 16 19 20 15 3 21 27 6 8 6 22 12 16 28 0
split_gain=31.0438 22846 116.357 19.3599 214.634 32.4099 4505.29 217.327 265.317 45.5334 31.3923 32.2075 27.2988 63.3062 23.8781 26.791 481.168 680.207 91.0967 27.4248 18.1443 43.7574 25.4989 205.711 683.639 20.0934 26.6128 15.2336 725.167 3227.6
threshold=6.3582579486419748 -2.2019242896104219 -1.262024980472668 -3.7804529389881618 1.0123691769330316 -2.6282486990870688 -3.5813352350863306 -2.2626383085483619 2.1030050029007099 -2.801278354978781 -2.4490537090605438 -0.40770179418921654 -3.5439995401034765 -1.729856147409248 -1.4083997414332519 2.5766709848883971 -0.19986745010304616 0.6499267039173382 0.59852164033933242 -1.8717311961303136 0.93075715294581962 0.56727643674360284 0.32007058151822737 -2.1849241103129136 -0.036374459788726311 -0.45129305822401705 1.0000000180025095e-35 -1.8893851175011476 -0.33889625396155593 -0.75630705863296233
decision_type=2 2 2 2 2 2 2 2 2 2 2 2 2 2 2 2 2 2 2 2 2 2 2 2 2 2 2 2 2 2
left_child=3 -2 -3 4 10 6 -5 8 -8 -9 11 -1 13 -7 15 19 17 -17 -18 -14 22 -22 23 25 -25 -12 -27 28 29 -16
right_child=1 2 -4 5 -6 12 7 9 -10 -11 20 -13 14 -15 27 16 18 -19 -20 -21 21 -23 -24 24 -26 26 -28 -29 -30 -31
leaf_value=-0.12283077488636945 -381.39219833247097 -11.89419187254436 -0.15344801598342009 -150.75673396230502 2.8497515039163588 -2.7013496228465574 -7.2558551391130273 -0.94810447054507763 -0.11324209534681058 -0.12279418394550334 0.077727312571475582 -2.1420361073047531 -1.6414266972616549 -0.30376267488474651 -0.10138389703868295 -59.415444655431543 -5.2481825808534053 -0.100263204688116 -0.24013256824514095 -0.18275762264952003 0.060612614795364395 -1.4048349735950947 -0.13309491405449037 11.258311680133732 0.54226773121248573 -1.3779064190077879 -0.10521908300878376 -0.0758086531922431 0.19907885459448507 -79.386614264767317
leaf_weight=0.17550599266546552 0.0015735964011297501 0.0084788608041280744 1.8984114654390283 0.0019901390804574195 0.26098316132198718 0.11374831583816591 0.097978690618854461 0.73492334554062644 0.11083568453616298 7.3952918909413592 2.5581024557873597 0.14365100761458205 0.13082806174619399 3.4601748823526597 0.027739845628215902 0.003371804328103003 0.038863493905725299 0.0045318290940486094 0.55533713832845699 8.714268935523199 0.58374077024590576 0.31301440602965158 4.7068045445771736 0.07058741673756519 0.38014489539401652 0.24038504436613883 0.51912800561781725 77.414450148203187 0.64517142278062212 0.0063006897398738054
leaf_count=19 22 18 741 14 80 10 31 43 21 2129 61 26 119 499 59 35 35 11 232 2574 48 46 359 107 22 28 34 205823 318 41
internal_value=0 -0.519954 -0.205652 -0.113136 0.0198442 -0.126442 -0.315115 -0.279212 -3.46466 -0.197397 -0.056366 -1.03167 -0.10917 -0.380071 -0.0981108 -0.24827 -0.893714 -25.405 -0.567682 -0.204333 -0.0231526 -0.450905 0.0221079 0.215962 2.22047 -0.0563706 -0.508023 -0.0799456 -0.551467 -14.7766
internal_weight=0 1.90846 1.90689 109.408 9.95205 99.4558 8.34102 8.33903 0.208814 8.13022 9.69106 0.319157 91.1148 3.57392 87.5409 9.4472 0.602104 0.00790363 0.594201 8.8451 9.37191 0.896755 8.47515 3.76835 0.450732 3.31762 0.759513 78.0937 0.679212 0.0340405
internal_count=213605 781 759 212824 830 211994 2238 2224 52 2172 750 45 209756 509 209247 3006 313 46 267 2693 705 94 611 252 129 123 62 206241 418 100
is_linear=0
shrinkage=0.1


Tree=21
num_leaves=31
num_cat=0
split_feature=10 14 19 12 7 24 14 17 3 24 25 2 11 28 9 8 28 8 17 16 12 7 6 10 17 13 22 9 3 1
split_gain=17.9104 38.3158 220.123 26.9878 514.874 3531.38 86.0708 253.907 30.1215 968.957 47.0188 217.258 246.449 42.7955 1262.96 162.784 42.326 25.5078 319.392 1205.4 1656.83 47.729 628.32 844.84 43.9628 24.8338 22.7221 264.443 1232.79 22.6573
threshold=1.0278713120218153 -2.9596668294410917 0.30437180152775228 1.608068916659789 0.56189168124936084 0.65868024628348731 -2.3949392387061557 -0.16194972068838717 1.4441057482807858 -3.5595060421737297 1.0738174819577206 -1.9068823519341642 -1.871875181991099 0.70284508473091778 -1.5362860619225942 -2.0151054563564341 -0.35045072306203667 -1.8209999008282427 2.1927263760316933 0.13579709331801246 0.36861712131577035 1.0636874635916647 -0.26545407230916068 -0.50883480605748332 2.0138907424937318 -3.7804529389881618 -1.0991852398137596 0.97784301990755274 1.3409297554677366 1.0525298963133356
decision_type=2 2 2 2 2 2 2 2 2 2 2 2 2 2 2 2 2 2 2 2 2 2 2 2 2 2 2 2 2 2
left_child=17 2 -2 8 6 -6 7 -5 -3 -10 13 12 -12 16 -15 -16 -11 18 21 -20 -21 24 -23 -24 25 -1 27 28 -27 -18
right_child=1 3 -4 4 5 -7 -8 -9 9 10 11 -13 -14 14 15 -17 29 -19 19 20 -22 22 23 -25 -26 26 -28 -29 -30 -31
leaf_value=2.0245644942945735 -0.10004962630438702 -0.097730591774218903 25.870574988978298 -34.221092005892409 -0.10004855896967264 -101.65486135765218 -0.1337232863148041 -0.10002167275401574 97.267737107725324 2.2195065560346978 10.130373841717478 0.1533127251975982 1.1538338731686439 65.286885395473391 16.742210403908011 -0.10505748281018618 0.26296514705627144 -0.12071533604347924 -0.10007239994631192 -159.72927635051755 -0.10002005994392416 -0.10133249158167451 -0.10002333763674871 -76.562676682109455 -4.8356604194305515 -0.1000198162123144 -0.23362606889394125 -0.1098071866116359 -76.410088973026234 -0.12608244435299615
leaf_weight=0.04695666169432744 0.021412848000184392 14.021404065006696 0.0038505087136968532 0.0029307403602064587 0.02620361900881106 0.0039387585372366992 1.7586220223463975 0.0085234716752891123 0.0010270340391710367 0.085975863015503751 0.049764629259034132 0.70836880225065857 0.079358149662311916 0.0030587090874353287 0.0059373073163442027 0.16852172698254433 2.1148126101063234 77.072075632121525 0.009503754344948186 0.001252903183896841 0.0013516779321671724 0.065529890410603309 0.0032287759274876146 0.002615650805367175 0.021119762411282106 0.011013323084165952 2.9606645843451083 0.12636845692441304 0.0026208140081086994 5.1235829707151028
leaf_count=5 93 30531 31 16 115 28 2490 43 20 78 43 69 17 32 3 146 1000 173128 46 27 14 174 17 23 40 86 4840 93 15 342
internal_value=0 -0.034135 3.85826 -0.0382048 -0.410689 -13.3704 -0.19 -8.83043 -0.00821828 0.142265 0.130303 0.840967 4.61344 0.0509665 1.58515 0.4683 0.013783 -0.132291 -0.40662 -16.6176 -76.8878 -0.346039 -2.90335 -34.3206 -0.288437 -0.257927 -0.292493 -1.53736 -14.7687 -0.012416
internal_weight=0 24.1873 0.0252634 24.162 1.80022 0.0301424 1.77008 0.0114542 22.3618 8.34041 8.33938 0.837492 0.129123 7.50189 0.177518 0.174459 7.32437 80.3243 3.25223 0.0121083 0.00260458 3.24012 0.0713743 0.00584443 3.16874 3.14762 3.10067 0.140003 0.0136341 7.2384
internal_count=213605 35097 124 34973 2692 143 2549 59 32281 1750 1730 129 60 1601 181 149 1420 178508 5380 87 41 5293 214 40 5079 5039 5034 194 101 1342
is_linear=0
shrinkage=0.1


Tree=22
num_leaves=31
num_cat=0
split_feature=14 20 22 10 9 11 20 20 10 28 24 4 11 10 9 8 17 24 3 17 10 4 17 8 13 12 27 5 4 21
split_gain=137.337 7330.02 2784.34 19546.9 1667.31 1763.32 962.026 175.501 1552.83 143.123 2948.45 6169.95 2749.02 843.316 6133.24 12110.2 21054.5 58.8026 2351.29 16244.9 28960 629.536 42.1656 218.993 18.1352 29.816 91.151 376.752 311.822 85.1334
threshold=-2.9596668294410917 -1.1094876234409516 -0.40278247715635379 1.0569900764001396 -1.1091416498044935 -1.0000000180025095e-35 -0.98442216472541733 -0.44116711424650906 1.0874141883151232 6.3582579486419748 -3.5595060421737297 -3.5214927974404433 -2.0336194243651433 1.0569900764001396 -1.3272788783563183 -1.6307431998161068 -0.044040773382352981 -3.5595060421737297 1.4441057482807858 -0.41011907666898145 -0.87869037715995102 1.1893240250966663 1.2053423003742294 1.0781317554331096 -0.44709217135930035 1.4439009860335961 -1.6326859773579019 -0.20921817749896224 0.36960066453779289 1.6144081080470032
decision_type=2 2 2 2 2 2 2 2 2 2 2 2 2 2 2 2 2 2 2 2 2 2 2 2 2 2 2 2 2 2
left_child=1 -1 3 -3 5 -4 -6 8 -8 17 11 -11 -12 -14 15 -15 -17 18 22 20 -20 -21 -2 -24 25 -19 27 -27 -29 -28
right_child=9 2 4 -5 6 -7 7 -9 -10 10 12 -13 13 14 -16 16 -18 24 19 21 -22 -23 23 -25 -26 26 29 28 -30 -31
leaf_value=-184.72831694804086 0.0092384667228892561 -0.10002253125742303 -114.87288570753847 -249.10045039785857 -96.564878701919895 -0.10008709225355637 -0.10080002804415543 -0.093896499127668842 -57.816612372577211 -229.71469923366732 -93.008590490931638 -0.10003253593969581 -0.1450514823777237 -0.10037779512390438 -0.10483875404522845 -0.10001594293421423 -502.43919830210893 -0.026920152412457973 -0.10003381350171858 -10.00387199225913 -594.56131270300318 29.387019022137551 -0.10012519034753598 -26.122139386070099 -0.13929507429834551 -0.10153200394190649 -0.16914767384798479 -36.190316230025694 -7.7666984480580332 -4.6130935020127142
leaf_weight=0.0021665149225608129 0.80113331277949973 0.024675995424332409 0.0026138410217857455 0.003614453026353103 0.0010366468795867103 0.0027437315229698047 0.04518602087773782 2.4997104629101492 0.0051978116852602332 0.0017420488385465386 0.0032276972767201198 0.0035653889878517696 1.5697686503912713 0.0057686165782797616 0.062915661513483753 0.0017525145116718994 0.0015925495092003715 33.159849976333589 0.0020956719279818996 0.01009715334059811 0.0013457562460388313 0.0067825973151656163 0.020413488371637804 0.0038428844255757938 57.561762023839663 0.064618555952280832 1.5808193137343218 0.0055301017646948525 0.01277752597903333 0.044316940646604297
leaf_count=25 558 132 27 21 7 13 144 438 31 38 31 27 550 7 86 17 23 48991 11 37 39 19 80 22 158818 62 3110 27 27 187
internal_value=0 -0.867229 -0.71312 -31.9129 -0.367859 -56.0952 -0.250827 -0.211674 -6.05501 -0.128748 -1.05187 -75.466 -0.811787 -0.630532 -11.2108 -87.8804 -239.258 -0.112415 -0.942475 -34.5469 -232.562 5.82412 -0.11513 -4.22274 -0.10482 -0.0479075 -0.45535 -3.68926 -16.3525 -0.290333
internal_weight=0 2.58695 2.58478 0.0282904 2.55649 0.00535757 2.55113 2.55009 0.0503838 94.9257 1.65033 0.00530744 1.64503 1.6418 0.0720293 0.00911368 0.00334506 93.2754 0.845711 0.0203212 0.00344143 0.0168798 0.82539 0.0242564 92.4297 34.8679 1.70806 0.0829262 0.0183076 1.62514
internal_count=213605 838 813 153 660 40 620 613 175 212767 779 65 714 683 133 47 40 211988 766 106 50 56 660 102 211222 52404 3413 116 54 3297
is_linear=0
shrinkage=0.1


Tree=23
num_leaves=31
num_cat=0
split_feature=24 14 15 12 3 28 9 4 19 11 8 25 18 13 8 12 16 23 5 11 8 13 9 25 20 24 9 23 19 28
split_gain=204.037 2680.4 11082.1 970.368 17143.5 32519.5 770.569 305.335 225.139 57.5727 255.04 61.1351 174.08 21.5872 19.5635 28.9552 675.955 1637.65 73.0502 305.135 30.2072 230.548 1566.73 146.656 135.93 30.2979 132.387 54.0742 265.084 32.2824
threshold=-3.5595060421737297 -1.771857898656781 0.98713524309527911 0.26124749522890284 1.1442887231162557 4.4468728914750875 -1.729856147409248 -0.12671764023742135 -2.3661584593894229 1.0847882974020318 -0.97963215810303594 -1.8317710347575702 -0.024870556974920435 -0.44709217135930035 1.0781317554331096 1.7983322481474697 -1.1972848141895327 -0.5247778090130889 0.49132429450767073 0.028948505462219408 0.89507781522223218 -2.1108418510541083 -1.2527546653271298 2.4940262468106265 1.1273632182172384 -1.0598016166685718 -1.8479549031280158 1.7409527757937207 -0.59071320589689935 3.5400469713970488
decision_type=2 2 2 2 2 2 2 2 2 2 2 2 2 2 2 2 2 2 2 2 2 2 2 2 2 2 2 2 2 2
left_child=1 2 7 6 -5 -6 -3 -1 -8 10 -10 12 -12 14 15 20 17 -17 -18 -20 25 22 -22 24 -23 26 -2 -28 -29 -27
right_child=13 3 -4 4 5 -7 8 -9 9 -11 11 -13 -14 -15 -16 16 18 -19 19 -21 21 23 -24 -25 -26 29 27 28 -30 -31
leaf_value=46.340674767574491 -4.8887581424346243 76.540363588660213 -228.92123644801774 -0.1000207458062143 -625.15116684825261 70.641163954644142 -23.029179967459264 -0.10001926241696504 25.510102101998328 -3.0027269426012753 -0.10018150839551317 0.027335503738725328 -23.512177908417556 -0.13794051401196245 -0.17232066408378435 -0.10001684929313957 -0.10756943545775946 -116.74383648815497 -38.236469373245725 -0.10001859124277873 91.035048977246845 0.067903372048828223 -0.1000212208712364 15.384289334854614 13.990473368660739 0.051514116658063769 -0.15415211001748674 -32.146944488405872 -0.10002083772132352 -3.0223999072002847
leaf_weight=0.0021532839018627726 0.060514018019505289 0.0013047951790667858 0.0026221341538923779 0.044046199251303063 0.0012798891964907009 0.0014136030528803763 0.0043612760955235022 0.0041331772585211958 0.0039047060551612436 0.068982501638503613 0.012384506066155154 0.68768978748847298 0.00427128514904651 54.348607287857618 8.293461755313027 0.0040389095178170464 0.40140250418404377 0.0017146214959211639 0.0026178358086781381 0.010566027151071467 0.0021945451334772761 0.5894217397151339 0.013432179651282961 0.0064581379197864433 0.0070969836014880263 22.017779395252976 4.1696134416905766 0.0031204242186504407 0.014934776622485546 0.034218184415666708
leaf_count=15 65 21 23 242 54 31 30 26 31 27 34 281 24 159913 6843 33 735 21 20 63 18 2070 81 24 38 37578 4964 17 75 208
internal_value=0 -1.66541 -56.2256 -1.07955 -15.0765 -259.984 -0.243918 15.8072 -0.372102 -0.244966 0.0236355 -0.117655 -6.10406 -0.0982806 -0.0377893 0.00302144 -0.820545 -34.8613 -0.348136 -7.67253 0.0158815 0.706599 12.6986 0.395816 0.233545 -0.000364772 -0.244904 -0.177798 -5.63859 0.0467443
internal_weight=0 0.838547 0.0089086 0.829639 0.0467397 0.00269349 0.782899 0.00628646 0.781594 0.777233 0.70825 0.704346 0.0166558 89.9812 35.6326 27.3391 0.42034 0.00575353 0.414586 0.0131839 26.9188 0.618604 0.0156267 0.602977 0.596519 26.3002 4.24818 4.18767 0.0180552 22.052
internal_count=213605 839 64 775 327 85 448 41 427 397 370 339 58 212766 52853 46010 872 54 818 83 45138 2231 99 2132 2108 42907 5121 5056 92 37786
is_linear=0
shrinkage=0.1


Tree=24
num_leaves=31
num_cat=0
split_feature=24 8 21 1 14 9 28 21 3 28 19 8 25 8 14 17 11 8 13 9 20 13 13 7 21 27 0 11 20 11
split_gain=3288.57 73061.6 52470.1 99862.4 23386 78587.7 39197.6 1263.18 2481.23 757.676 534.598 248.893 1127.7 10215.3 4869.5 1250.39 588.115 419.97 5447.93 9749.67 5400.86 1386.76 788.94 6569.48 867.896 180.216 145.906 91.0198 83.005 300.515
threshold=-3.5595060421737297 -1.017773087691304 1.0125841700651381 -0.29229424006450827 -1.771857898656781 -1.6231554579264473 -0.18129169619652177 -2.055990713038526 0.52240191833359306 -0.34965110582324904 -2.3661584593894229 0.84237462848434175 2.4940262468106265 1.0781317554331096 -0.25179543359447548 -0.47022947588427927 0.59708356052964773 1.0781317554331096 -2.4879431365010745 -0.40597496404437544 1.1273632182172384 -0.49041147208992308 -2.1108418510541083 -0.03204457276165789 0.11517607227823438 -0.39243172645249058 -1.0000000180025095e-35 1.023167429917607 -1.5516916570100847 0.87328016488872062
decision_type=2 2 2 2 2 2 2 2 2 2 2 2 2 2 2 2 2 2 2 2 2 2 2 2 2 2 2 2 2 2
left_child=1 2 3 -1 6 -6 -3 8 -7 -9 -11 -2 17 14 15 -14 -16 18 19 -13 22 25 23 24 -20 -22 -23 -12 29 -24
right_child=11 4 -4 -5 5 7 -8 9 -10 10 27 12 13 -15 16 -17 -18 -19 20 -21 21 26 28 -25 -26 -27 -28 -29 -30 -31
leaf_value=-1117.7658647206233 -0.077302583693454024 -0.10001688131627895 -61.596432868298159 -190.66503243315552 -716.65175701537328 -0.10015177705571501 -700.01648728922214 75.263364803747379 -187.84526608016714 -53.963366106411229 0.013533881987699524 -255.71036896804728 -114.55422909806148 -0.22034590383554825 -0.10007131715897244 -66.058156434650996 -42.130688080144111 -0.15983572891423231 69.290817346307009 -0.10001693879276714 -16.744344845328417 -0.10054320460190397 -0.10004119841489448 -136.95444568821321 -0.10001762138369426 -23.473847500203981 -16.744823471207582 -4.6789758522302431 -0.097515745497893339 -38.47629522164614
leaf_weight=0.0016999579984080526 64.27772647290486 0.0021182247000987101 0.0064910237957500885 0.0036703906393641137 0.001535129915043564 0.0020752609859755427 0.0012858653577552037 0.0013269043252082105 0.0010652732644120841 0.0018565506547478785 0.76347793149268595 0.0023473227774957195 0.008723353617824614 0.32197931048669237 0.011178325983152271 0.013613457202154677 0.0047411323321284718 16.129462307653387 0.0028822245367337018 0.0040962610233424837 0.065317892775055952 0.045260793370905356 0.009406630657426196 0.0036535171769104258 0.0048112517542904243 0.10184165422106162 0.0059603326917565804 0.043701807990432218 3.4074954956505707 0.002605775842729364
leaf_count=41 176894 22 27 25 40 12 31 14 46 42 463 25 15 218 54 30 9 24770 16 31 20 151 56 27 30 44 14 76 10337 25
internal_value=0 -6.4977 -252.904 -484.134 -2.92662 -1.83419 -264.487 -0.485283 -63.7835 -0.239973 -0.363806 -0.173427 -0.48013 -6.02492 -54.8784 -84.9977 -12.6176 -0.379174 -1.34693 -93.2159 -1.18471 -16.4331 -0.214122 -26.5387 25.896 -20.8443 -2.03735 -0.240525 -0.126769 -8.42476
internal_weight=0 0.830304 0.0118614 0.00537035 0.818443 0.815039 0.00340409 0.813504 0.00314053 0.810363 0.809036 84.4231 20.1454 0.360236 0.0382563 0.0223368 0.0159195 19.7851 3.65568 0.00644358 3.64924 0.218381 3.43085 0.011347 0.00769348 0.16716 0.0512211 0.80718 3.41951 0.0120124
internal_count=213605 839 93 66 746 693 53 653 58 595 581 212766 35872 326 108 45 63 35546 10776 56 10720 229 10491 73 46 64 165 539 10418 81
is_linear=0
shrinkage=0.1


Tree=25
num_leaves=31
num_cat=0
split_feature=24 15 12 11 28 13 25 1 10 0 19 28 3 16 26 19 13 19 13 21 0 11 25 0 7 24 7 18 11 17
split_gain=114.804 3816.03 1240.08 5821.41 9033.03 1099.61 640.981 1499.01 530.279 236.861 52.9856 47.5862 28.6543 81.4865 232.876 571.302 50.3258 566.474 141.288 929.369 2683.1 395.018 3301.3 251.658 547.568 139.224 370.183 125.252 312.019 42.192
threshold=-3.5595060421737297 -2.8594422857000605 0.041885567158075378 0.9453951991497821 -0.22822922811335336 1.8431918586702958 -2.0324974930786772 -0.17149234482866171 -1.8429046864555396 0.14112269508928432 0.73383791395664011 0.12686079720124618 -0.018747393768212568 3.5402808012507001 -0.67374514636389038 -0.13023892620060706 -2.1108418510541083 -3.5813352350863306 -2.4879431365010745 -0.99030387741831605 -0.66231130694338358 0.23636241145634787 -0.55147407608585564 -3.7333844875288609 -1.0826321926112101 1.3565692630433526 -0.1093461588461931 0.97574946067472779 -0.61785018063442598 0.75848152015551451
decision_type=2 2 2 2 2 2 2 2 2 2 2 2 2 2 2 2 2 2 2 2 2 2 2 2 2 2 2 2 2 2
left_child=1 -1 6 5 -5 8 7 -3 -4 -10 -8 -12 13 16 -15 -16 17 -2 23 20 -20 25 -23 24 -19 27 -27 29 -29 -21
right_child=12 2 3 4 -6 -7 10 -9 9 -11 11 -13 -14 14 15 -17 -18 18 19 21 -22 22 -24 -25 -26 26 -28 28 -30 -31
leaf_value=188.12039096712397 -29.42608275438516 -0.10007118445277899 -60.377677245498944 -397.04627273939036 -0.10001779451075442 -68.589203508365173 0.032089255180672259 -107.83606989997116 -0.098782637163356446 -26.339755198710641 -3.771333843371155 -0.10713278045152225 -0.053223086214903327 -0.10060064007884156 -88.814993338671698 -0.10001301132495227 -0.13983298852828355 -80.227556019476566 -0.10001420800351622 -0.10584908636745261 -124.50437620190274 -125.20747286573884 -0.10001824079903308 -0.17205867462323099 -0.10001048310017857 49.54281413883804 -0.10001863087480667 -45.097091633281885 -0.10001786017296313 -4.7677493034272951
leaf_weight=0.0010625840006778233 0.0068198955745341064 0.0042439056694962207 0.0016589894512436037 0.0010076857393813881 0.0013298528835363841 0.0029139542457414921 0.65767435883628289 0.0018563888106477092 0.035314222907960449 0.0038110139576155644 0.07738674280972184 0.0653905510076664 47.51885137736685 0.00888757333837863 0.0011272053269211239 0.0020388813240795976 29.516019127216833 0.0012479408133594045 0.0061678167240418538 0.20690121597265052 0.0024114910556819677 0.00239793857171433 0.017517085996604731 1.7527196400423219 0.0026938610290018535 0.002014389526679373 0.0059066734793304923 0.0022223666819627397 0.0050265696499030834 0.021423688206530955
leaf_count=16 38 41 15 35 91 16 288 20 230 37 19 31 106791 17 20 28 104180 18 52 432 18 23 111 780 28 19 34 16 36 125
internal_value=0 -1.2682 -1.50424 -17.4676 -171.219 -9.24298 -0.593096 -32.8854 -5.00281 -2.6548 -0.346995 -2.09317 -0.102282 -0.176139 -8.39668 -31.6847 -0.172999 -0.653929 -0.557203 -2.67808 -35.0679 -1.62314 -15.164 -0.22882 -25.4677 -0.515659 12.5245 -0.95413 -13.8951 -0.543274
internal_weight=0 0.85365 0.852588 0.0460357 0.00233754 0.0436982 0.806552 0.00610029 0.0407842 0.0391252 0.800452 0.142777 79.0824 31.5635 0.0120537 0.00316609 31.5515 2.03547 2.02865 0.271989 0.00857931 0.26341 0.019915 1.75666 0.0039418 0.243495 0.00792106 0.235574 0.00724894 0.228325
internal_count=213605 839 823 424 126 298 399 61 282 267 338 50 212766 105975 65 48 105910 1730 1692 866 70 796 134 826 46 662 53 609 52 557
is_linear=0
shrinkage=0.1


Tree=26
num_leaves=31
num_cat=0
split_feature=24 17 15 18 17 18 0 18 7 21 14 13 0 12 0 9 1 8 3 18 5 16 26 16 22 2 3 13 3 24
split_gain=106.959 1057.99 9974.75 12643.6 778.324 650.4 300.327 314.886 198.542 437.627 123.957 710.705 128.15 751.377 2345.17 158.949 384.324 95.3016 3287.26 6398.33 1295.73 452.504 145.581 1104.86 2215.51 63.1952 33.0295 132.444 994.886 7502.91
threshold=-3.5595060421737297 0.98976501049204624 -0.94315633907290175 -0.92561468222315779 -2.4828671623839011 -2.301698908214886 -0.19591638860209129 0.48789780066660954 -0.02004349195150144 0.32822413200143546 -1.2154978907553282 0.74941879224044494 -0.40178833868394886 0.66547421668021478 -1.0000000180025095e-35 0.04441252481933073 -0.53970696538425844 3.7189191161988338 -2.0322520946826481 -0.69678056810236122 -1.2833608990570833 -0.50377462689505903 2.6579607242406937 -1.3631933810226429 0.18593473038504543 0.76140551520160338 -0.018747393768212568 -2.1108418510541083 -0.18303442760470404 1.7187066444626524
decision_type=2 2 2 2 2 2 2 2 2 2 2 2 2 2 2 2 2 2 2 2 2 2 2 2 2 2 2 2 2 2
left_child=1 4 3 -3 -1 -6 8 -8 -4 -10 11 -7 -12 15 -15 -14 -17 26 19 20 -19 -22 -20 24 -24 -25 27 28 -2 -30
right_child=17 2 6 -5 5 10 7 -9 9 -11 12 -13 13 14 -16 16 -18 18 22 -21 21 -23 23 25 -26 -27 -28 -29 29 -31
leaf_value=76.687984760870577 -0.81649866483669309 -0.10001931748896027 -0.10063865062467521 -396.23612416383855 -66.178345695109712 -0.10002099710381751 57.297091994781923 -0.10002127791558774 -67.910256791037355 -0.10001871784885062 -0.12190886548142149 -84.377114517563072 -0.10278969045124851 -0.10001854884965029 -161.06590499727352 -56.098782201771826 -0.10002192419344819 -95.473135712915408 -0.13325350963122198 -226.8068422162232 -0.10007002666132886 -54.73223762341641 -173.01215332085178 -0.10064456092187644 -0.10001844910401173 -8.3907097182943886 -0.048552389511881074 -0.14132372318678024 -0.10001531203568403 -171.86916644975389
leaf_weight=0.0013022867497056714 1.1344604940833423 0.0017214471590705216 0.020042005440079301 0.0015146309306166309 0.0015133555819720748 0.0063853919786756889 0.0017422480013939436 0.0021174837191490609 0.0014731984884974723 0.0026887287794043935 0.82534488065984057 0.0011865620114101215 0.054317173904220258 0.003333363833007752 0.0012424992859145839 0.0017857537750394503 0.0039069596520978763 0.0020970279050516192 1.0271623419776665 0.0017641016856315963 0.0088285475215748917 0.0018304214405571147 0.0011566567610484515 0.041940828683965495 0.0020620688128610426 0.011777519757742994 45.587194560518967 26.396411527080289 0.020118938589254991 0.002910883587869245
leaf_count=32 1222 14 37 28 36 98 19 23 12 43 247 29 93 36 37 20 35 28 411 33 82 23 21 206 22 2 106675 103814 197 30
internal_value=0 -1.19288 -19.2666 -185.51 -0.564541 -0.676446 -0.0968249 25.8085 -4.22788 -24.1028 -0.565998 -13.3067 -0.457594 -4.74734 -43.8076 -1.76892 -17.6663 -0.114683 -1.03914 -48.3045 -23.6184 -9.48183 -0.406086 -5.32807 -62.2364 -1.91821 -0.100797 -0.187234 -1.23421 -21.811
internal_weight=0 0.931618 0.0312997 0.00323608 0.900318 0.899016 0.0280637 0.00385973 0.0242039 0.00416193 0.897503 0.00757195 0.889931 0.0645858 0.00457586 0.0600099 0.00569271 74.2397 1.09862 0.0145201 0.012756 0.010659 1.0841 0.0569371 0.00321873 0.0537183 73.1411 27.5539 1.15749 0.0230298
internal_count=213605 839 176 42 663 631 134 42 92 55 595 127 468 221 73 148 55 212766 828 166 133 105 662 251 43 208 211938 105263 1449 227
is_linear=0
shrinkage=0.1


Tree=27
num_leaves=31
num_cat=0
split_feature=24 17 19 0 12 17 22 15 13 25 0 13 7 17 27 3 24 4 1 28 22 9 16 10 12 8 8 24 16 9
split_gain=576.043 19020.5 40933.4 7157.62 43574.6 2529.64 9812.03 68.0247 30.2594 147.741 136.497 38.8964 137.203 1544.22 3227.47 142.752 1072.86 796.482 604.076 152.769 3176.1 5517.51 49.7385 406.887 2855.93 315.925 95.3176 993.537 117.758 1032.08
threshold=-3.5595060421737297 -2.0150016166269418 -1.4702849544249905 -0.26431187448533494 0.7554815700008003 1.0285504364248756 0.67893663200916776 -2.320857107460951 -3.7804529389881618 1.1052605306091186 -0.67427018243144177 -2.1108418510541083 0.76457996155656482 0.88918646717113825 0.060519148201299854 -0.21763323630001682 2.2249376750506471 -1.3674184112378425 -0.90749519857877703 -0.1303560780857522 -0.35379278647578088 -0.38420275655801145 2.3432372903467309 -0.43887697648142759 -1.6725896760061134 -2.1849241103129136 0.32302416889101276 -0.26326288225144973 2.5766709848883971 -0.55752029834342631
decision_type=2 2 2 2 2 2 2 2 2 2 2 2 2 2 2 2 2 2 2 2 2 2 2 2 2 2 2 2 2 2
left_child=1 2 -1 7 5 -5 -7 -3 9 -2 -11 12 15 14 -14 16 17 -10 -19 -20 21 -21 25 24 -24 -17 28 -28 29 -25
right_child=8 3 -4 4 -6 6 -8 -9 11 10 -12 -13 13 -15 -16 22 -18 18 19 20 -22 -23 23 26 -26 -27 27 -29 -30 -31
leaf_value=68.350763738452116 0.0049454723464617198 -3.7754225507189201 -744.81524111583133 -0.10002033924186782 -505.75703174265936 57.842229832537171 -304.98078663849969 -0.11920655821099607 -81.648654634405702 0.46961521389975741 4.8828441844138304 -0.091579702842997157 -0.10002367935052592 -0.10141344512653881 -164.19072307621531 -31.423140125100264 -29.766213873887622 -61.99207147757253 -0.10516172165313198 -0.10000717502366473 -0.10405874173170651 -295.62660899427868 -164.17464232707383 -0.10006271505728009 -0.10003383054710045 0.05572886807133709 -54.872287777237389 -1.3797965319826648 -0.2107679977546186 -57.949188194098511
leaf_weight=0.0014609009778467907 8.4784790308780842 0.05450657755136501 0.0010742361303073258 0.017748191886838377 0.0019776250875519997 0.0017258563748567359 0.0013119882989609745 0.76620173063841812 0.0012262619002946775 0.16839172998871077 0.12004265131174841 54.730985088743054 0.0034806948219736475 0.054313321904543202 0.0018282565811182927 0.0031908442761044977 0.013483819371717276 0.001615716169975078 0.41865920157279857 0.001672806372653201 0.049653585075483855 0.0010151367048252783 0.0012189574990770788 0.02861283838206008 0.0081804366600976008 3.8460356633638559 0.0036514841503958581 0.070697901140373984 1.4886356089478707 0.0034566258163980504
leaf_count=28 767 8 32 175 87 21 24 464 25 40 20 207706 30 145 30 6 51 36 979 29 119 34 16 160 58 1477 30 136 854 18
internal_value=0 -2.71824 -276.219 -1.89621 -57.2086 -14.5328 -98.8542 -0.362031 -0.0930084 0.0806623 2.30634 -0.118079 -0.359773 -5.13296 -56.6083 -0.31187 -1.95169 -1.16019 -0.951351 -0.741958 -5.83544 -111.709 -0.16534 -0.633102 -21.378 0.0296342 -0.510856 -4.00695 -0.339927 -6.33536
internal_weight=0 0.846007 0.00253514 0.843472 0.0227637 0.020786 0.00303784 0.820708 69.4985 8.76691 0.288434 60.7316 6.00063 0.0596223 0.00530895 5.94101 0.487327 0.473843 0.472616 0.471001 0.0523415 0.00268794 5.45368 1.60445 0.00939939 3.84923 1.59505 0.0743494 1.52071 0.0320695
internal_count=213605 839 60 779 307 220 45 472 212766 827 60 211939 4233 205 60 4028 1273 1222 1197 1161 182 63 2755 1272 74 1483 1198 166 1032 178
is_linear=0
shrinkage=0.1


Tree=28
num_leaves=31
num_cat=0
split_feature=24 0 17 17 12 21 28 13 4 0 18 23 24 25 8 5 26 6 12 5 23 19 15 2 20 18 19 3 25 17
split_gain=459.944 8160.89 128344 460.666 42.479 480.261 2756.69 35.2064 32.3829 47.9161 304.709 28.6873 188.245 406.185 199.296 579.327 248.263 605.21 63.3605 140.482 31.6115 333.383 28.4054 516.441 705.174 50.8117 129.047 26.0982 145.886 1200.35
threshold=-3.5595060421737297 -0.31707357209624282 0.8129476665398615 -1.7192627752748721 -0.36153280531353554 0.33960922156726731 -0.10410864222254954 -0.44709217135930035 0.64738372043686887 1.0839334362033732 -0.2398193455381106 1.1702611804928682 1.9076748040376896 0.46144615620806184 -1.8209999008282427 -0.75342190871892722 -2.801278354978781 0.32007058151822737 2.2788181804558816 -1.515915403201948 1.1488241574969205 -0.50649111707843841 -2.4537784017646653 -2.2626383085483619 -1.8391259136889115 2.6052741483218456 -0.66514173948012834 0.23352434913242315 1.3294351372508619 1.3732830555386217
decision_type=2 2 2 2 2 2 2 2 2 2 2 2 2 2 2 2 2 2 2 2 2 2 2 2 2 2 2 2 2 2
left_child=1 3 -3 -1 -5 -6 -7 8 11 27 -11 18 14 -14 15 -13 17 -16 20 -20 -2 -22 23 -9 -25 -26 -27 28 -10 -30
right_child=7 2 -4 4 5 6 -8 22 9 10 -12 12 13 -15 16 -17 -18 -19 19 -21 21 -23 -24 24 25 26 -28 -29 29 -31
leaf_value=-12.500362751529604 0.12560767114832089 -0.10001811807114076 -1053.3473812685013 0.053547941134807646 -0.10618043074647959 -164.10121486437473 -0.10003841375435976 -10.939513385252267 -0.25372462994154238 35.115755446868683 -0.1000172326693521 -78.373097623948766 -0.10001357229892847 -60.211135677128482 -85.598736075551955 -0.10001155287310359 -0.1100669080814257 -0.10001036193391588 -20.222260795531685 -0.10003066653486424 36.841921995839137 -0.10001538899975504 -0.11253939089416586 -70.911266922862168 -0.1126724082520215 -6.2300561317549139 -0.10616917653035336 -0.039463935475579477 -1.1927808604625656 -45.179996382918638
